731 128
</s> -0.003896 -0.003539 0.001239 0.001969 -0.003457 -0.003361 -0.002585 0.002052 -0.001672 0.002603 0.003270 0.002729 -0.001045 -0.002301 -0.000628 -0.000767 0.000641 -0.002302 0.001882 -0.000889 0.003848 0.001763 0.003598 -0.001626 -0.003385 0.001532 -0.000457 -0.001439 -0.002939 -0.000745 0.000184 0.001955 -0.000588 -0.002379 0.001759 -0.003549 -0.001895 -0.001853 -0.003533 0.000123 0.002812 0.002028 -0.000163 -0.002713 0.000199 0.003423 -0.001675 0.000198 0.001814 0.000347 -0.002414 -0.002169 0.001119 -0.002486 -0.003650 0.002474 0.002490 0.002846 0.003839 0.002451 -0.000123 -0.000162 0.003784 0.000435 -0.002335 -0.000973 -0.001391 0.000389 -0.001727 0.002322 -0.002229 -0.002433 0.002167 -0.000903 -0.002118 -0.001313 -0.000477 -0.000363 -0.001693 0.001713 -0.000799 -0.001702 -0.001718 0.001405 -0.003856 -0.003018 0.003633 -0.003034 0.000994 -0.003110 -0.003057 -0.002375 0.001784 0.003225 0.000825 0.002479 -0.002875 -0.002314 0.000631 -0.002684 0.001997 0.001563 -0.003108 -0.000567 0.001494 -0.003262 0.000692 -0.002152 0.003649 -0.000693 0.000071 -0.000389 0.002605 -0.001556 -0.000250 -0.001629 0.003273 0.000503 -0.001817 -0.002237 -0.003135 0.000386 -0.003576 -0.000460 -0.000630 0.002972 -0.003425 0.003065 
b5cae30a-5c03-4520-82dc-3317d96f3782 0.000497 -0.003834 0.002526 0.001713 0.002142 0.002203 -0.000030 0.000585 0.001419 0.003275 0.000764 -0.002991 -0.002480 0.003597 0.001200 -0.002218 -0.002246 0.001961 0.002427 0.003574 0.000834 -0.002754 0.002751 0.001379 0.000575 -0.000757 0.001915 -0.001699 0.001924 -0.003288 0.003439 0.003657 -0.001680 0.002550 -0.002798 0.003102 0.003870 0.002949 0.002096 0.003629 0.003393 0.000768 0.002496 -0.002161 -0.000234 0.003419 -0.000998 -0.003362 -0.001824 -0.002951 -0.000617 0.002206 -0.002654 -0.000473 -0.001698 0.000078 -0.000791 -0.000380 -0.001679 -0.001575 -0.002281 -0.000121 0.003575 -0.001929 -0.002654 0.001862 -0.000456 -0.000545 -0.001496 0.002792 -0.001237 0.000391 0.000446 -0.001492 0.001823 -0.002921 -0.002044 -0.000682 0.000387 -0.003093 -0.001077 -0.001077 -0.003425 0.000817 0.000062 -0.003228 0.001365 0.002835 0.002574 -0.001614 0.002011 0.003592 -0.002828 0.000268 0.001738 -0.000492 0.000275 0.001127 -0.003297 -0.000845 0.000492 -0.000859 0.001323 -0.002791 -0.001242 0.001383 0.002559 -0.003418 0.001231 -0.002690 0.001141 0.001327 -0.000115 0.000571 -0.003102 0.000590 0.003043 0.001650 -0.001980 -0.000978 0.002321 -0.001892 -0.002612 -0.003266 0.000755 -0.000374 0.003602 -0.002354 
7350b640-0901-4621-825c-6b55fe0a77d0 -0.002396 -0.001183 0.003478 0.000457 -0.002622 -0.003254 0.000536 -0.000124 0.002418 0.003880 0.000989 -0.000898 -0.002860 0.000297 0.002741 -0.003627 -0.000222 0.003633 -0.002024 0.001773 0.002160 0.000816 0.003096 0.000316 -0.003283 -0.003364 -0.001977 0.001952 -0.002285 0.003123 -0.003664 -0.003375 -0.001165 0.000738 0.002788 0.003577 0.000659 0.000054 0.001562 0.001778 0.003317 0.000539 -0.002556 0.000989 -0.003720 -0.001448 0.003250 0.001276 -0.003179 -0.002576 0.003513 -0.001080 -0.002769 -0.000137 -0.001295 -0.002531 -0.002675 -0.001953 0.003750 0.002210 -0.002037 -0.003671 0.003525 0.003662 -0.000721 0.003807 -0.003065 -0.001313 -0.003449 0.000413 -0.000554 0.000141 0.001779 0.001295 0.002839 -0.002290 -0.002045 -0.003430 -0.003555 0.000550 0.002549 0.000596 0.001768 -0.000624 -0.001267 0.003476 -0.001836 0.002053 -0.003180 -0.003565 -0.003814 0.003770 0.000070 -0.003401 0.003465 -0.001021 -0.003300 0.000622 -0.000921 -0.002254 0.002257 0.003636 -0.002754 -0.002565 0.000754 -0.002658 0.003779 -0.002620 -0.003766 -0.002217 0.000827 -0.000345 -0.000291 0.000984 -0.002276 -0.002352 -0.000913 0.002939 0.002211 -0.002870 0.002667 -0.002235 -0.003271 0.001199 0.000668 -0.003256 0.000616 0.003786 
93989c43-52e4-4d55-80fd-3593b51093a2 0.002412 0.001124 -0.001694 0.000374 0.002866 0.000403 0.001714 0.002582 -0.000867 -0.003790 -0.002180 0.001856 0.002150 0.003757 -0.002590 -0.001616 -0.003098 0.002296 0.001877 -0.000160 0.001019 -0.001681 0.002285 -0.001647 0.002304 0.003883 0.000307 -0.000806 -0.000462 -0.002817 0.003904 -0.001619 -0.000153 -0.001078 0.001414 -0.002157 0.001682 0.003502 -0.000256 0.002229 -0.003637 0.000123 -0.002484 0.000040 0.001629 0.002517 0.002290 -0.001815 0.003887 0.002088 0.001786 0.003275 0.002287 -0.002456 -0.001768 0.003098 0.000077 0.000202 0.000122 -0.002122 0.003543 -0.003857 0.002392 0.001923 -0.001013 -0.001217 -0.002253 0.002759 -0.000695 0.001179 0.003248 0.001522 -0.002193 0.000672 -0.003525 -0.003354 -0.001048 -0.001048 0.003186 0.003416 0.002718 0.001710 -0.003608 0.002654 0.002894 -0.000920 -0.002767 -0.002961 0.001025 -0.002087 -0.001496 -0.001960 0.002538 0.001149 -0.000366 -0.003066 -0.003224 -0.002477 0.000562 0.000724 -0.003139 -0.002516 0.001099 -0.001092 0.000471 -0.001116 0.001668 -0.003375 0.002144 -0.003563 -0.002666 0.003553 -0.003678 -0.003364 0.000050 -0.003115 0.000184 0.003680 0.002933 -0.002212 -0.003581 0.000607 -0.000384 -0.001598 -0.003142 0.000565 0.003731 0.003778 
400e1b48-667f-4a1f-89c0-48740a221eb0 0.000664 -0.001225 -0.003889 -0.001027 -0.002659 -0.000247 -0.003307 0.001803 0.000301 0.003409 -0.001918 0.000778 0.002152 0.000127 -0.002607 -0.001080 0.003111 -0.001361 -0.001986 -0.003864 -0.001720 0.003401 0.003615 -0.001254 0.000049 -0.003374 0.001239 -0.001146 0.000629 -0.003010 -0.003275 -0.002416 0.002409 -0.002491 -0.002290 0.001579 -0.002263 0.003027 -0.000358 -0.003552 0.002360 0.001090 0.002871 -0.001519 0.000688 0.000688 -0.000947 0.000782 0.000872 0.003880 0.001832 0.001086 0.003170 -0.002055 -0.002499 -0.002271 0.001464 -0.002893 0.000005 0.000405 0.001096 0.002727 0.000052 -0.003129 0.001010 -0.003034 0.000487 0.000353 0.001484 0.002865 -0.001971 0.001635 0.001070 -0.002290 0.001953 -0.002548 -0.002841 0.001711 -0.003310 -0.002703 0.000650 0.003848 0.001436 0.000577 0.001023 0.000039 0.000919 0.002469 0.001669 0.000813 0.001987 -0.003010 -0.000727 0.002363 -0.002022 -0.003446 0.003676 -0.003068 0.001776 -0.002525 0.003248 0.000791 -0.000162 -0.003376 0.003458 0.003856 0.003711 -0.003486 -0.003209 -0.001078 -0.003358 0.002456 -0.000479 0.002355 -0.001322 0.003748 -0.002143 -0.002343 0.000980 -0.002768 0.001464 0.002830 0.000551 -0.001704 0.000018 -0.002394 0.003309 -0.003902 
51b32781-4bc1-4f80-b990-f6fe9fc306ea -0.000157 -0.000667 0.000908 -0.003051 0.000184 0.003416 -0.001292 -0.002131 0.000746 0.000467 0.000994 0.000710 -0.001771 0.001107 0.002210 -0.002622 -0.002412 0.002974 -0.003161 0.001388 -0.001587 0.002916 0.000318 0.002697 0.000993 0.003053 0.001108 -0.002669 -0.003364 -0.002264 -0.001998 0.002670 -0.003292 0.002702 -0.000651 -0.003353 0.002480 -0.003706 -0.002360 -0.003572 0.001480 -0.001916 -0.000716 0.003860 0.001823 -0.001474 -0.001993 0.002028 0.002719 -0.003774 0.002944 0.003646 -0.001444 -0.002914 0.002062 -0.000338 0.000709 -0.002472 0.003221 -0.003671 0.002592 0.001365 0.002266 -0.003072 -0.002900 -0.001213 -0.002980 -0.000810 0.003220 0.003889 -0.001870 -0.002566 0.000005 0.001099 -0.000610 -0.002028 -0.001866 -0.001521 -0.000884 -0.002289 -0.001176 -0.000789 -0.003868 -0.002975 -0.000012 0.003291 -0.002739 -0.003173 0.002541 -0.000812 -0.001061 -0.003796 -0.002940 0.002802 0.003279 0.003073 0.000878 0.001905 -0.000039 0.003896 0.000831 -0.003761 -0.002296 -0.001348 -0.003268 -0.000769 -0.002352 0.000249 0.000788 -0.003788 0.000194 0.003001 0.000535 -0.001465 0.000143 -0.000967 -0.001672 0.000968 -0.000812 0.000378 0.002139 -0.002612 -0.001607 -0.002811 0.002577 0.002783 -0.000271 -0.002679 
2a4863e2-6b74-4fef-9381-82c85f6e3079 -0.001170 -0.000652 -0.003520 -0.003368 0.002932 0.002527 0.002290 0.000781 0.003123 -0.003293 0.002491 -0.000948 0.003677 0.000781 -0.002217 0.001087 0.000291 0.001132 0.002485 0.000841 -0.003496 0.003892 -0.003559 -0.002193 0.000178 -0.003721 -0.002495 -0.002971 -0.003146 -0.003559 0.003345 -0.002597 0.002298 0.000177 0.000598 -0.002672 0.003540 -0.003856 0.001078 0.003793 0.000087 -0.001455 -0.001664 0.003636 0.001524 0.003286 -0.000370 0.000247 -0.002169 -0.003723 0.003150 -0.003664 0.000832 -0.001997 -0.002581 0.002587 0.001241 -0.000413 0.001177 -0.000299 0.002211 0.001043 0.001896 -0.003840 -0.002720 -0.000868 -0.001258 -0.000178 -0.001058 0.002692 0.000333 -0.001196 0.001372 0.000992 0.003398 -0.003655 -0.000862 0.002047 -0.001992 -0.000224 0.000125 -0.003883 0.002054 0.000480 -0.001745 0.000398 -0.001239 0.001227 0.000487 0.001070 -0.001341 0.002749 0.003348 0.003389 -0.001752 -0.001847 -0.002135 -0.001819 0.002086 -0.003609 -0.000281 0.000731 -0.002289 -0.001614 0.003795 0.001682 0.003279 0.001744 0.000568 0.001565 -0.000820 -0.003320 0.000387 -0.000190 -0.003664 -0.002142 -0.000035 0.000500 -0.002245 -0.003346 0.001202 -0.000541 -0.003332 0.003518 0.001018 -0.000689 0.002204 0.002465 
50727478-b1c7-436e-bd73-55d27cb42045 0.003093 -0.003198 0.001219 0.002134 -0.000195 0.003395 0.000426 -0.003655 -0.003235 -0.002356 0.000975 0.001949 0.001913 0.001051 -0.002124 -0.001226 0.000401 0.003316 -0.002158 -0.000874 0.002008 -0.000108 0.002417 -0.001250 -0.000053 -0.002370 -0.003401 -0.000735 -0.000975 -0.002928 0.001339 0.003219 0.001583 0.002886 0.002138 -0.003846 -0.000209 0.000691 -0.000385 -0.003504 0.003371 -0.001340 0.002104 0.000180 0.002874 0.001808 0.003015 0.002368 -0.000865 0.001739 -0.002620 0.001310 -0.000949 -0.001784 0.002215 0.002639 -0.001069 0.002484 0.002299 -0.000543 -0.003829 -0.000338 -0.003069 0.001194 0.003635 -0.000166 -0.001038 0.000666 -0.001867 -0.001118 -0.002400 -0.000819 -0.003886 0.002137 0.001904 0.002556 0.000461 0.002214 -0.003217 -0.001476 0.003704 0.001597 -0.001265 0.000270 0.002477 0.002588 -0.003762 0.002503 -0.002414 0.000498 0.001138 -0.002689 -0.002979 -0.003538 0.003711 -0.002223 -0.003722 0.003232 0.003088 -0.002178 0.000203 -0.002165 -0.000539 0.003793 -0.001784 -0.002406 0.002554 0.003741 -0.003803 0.002441 -0.002494 0.002080 0.001259 0.003460 0.000729 0.001230 0.000199 0.003719 -0.001522 0.003229 -0.000275 0.001339 0.002252 -0.001153 -0.002638 -0.001976 -0.001865 0.001579 
54d9cf33-6daf-4d96-bcba-f5663cab56d8 0.002522 0.000353 -0.000610 -0.003693 -0.001925 0.002720 0.002810 -0.002530 -0.002689 0.002189 0.001048 0.002949 -0.003852 0.000487 -0.001789 -0.003780 0.001316 -0.001628 0.000945 0.000827 -0.003494 0.003093 -0.002214 0.003884 0.002471 -0.001258 0.000096 0.001061 -0.000617 0.002325 0.000810 -0.001265 -0.000705 -0.003692 0.000147 0.000406 -0.002054 0.001075 0.001375 0.000580 0.000010 -0.000065 0.000783 -0.002420 0.003287 0.003553 -0.000044 0.001627 0.003101 -0.002308 0.002009 0.002753 -0.003823 -0.001354 -0.003578 -0.000092 -0.001620 -0.000700 0.003520 0.001138 0.000887 -0.001044 0.003555 0.002421 -0.003620 0.001434 0.001119 0.003504 -0.000171 0.002683 0.002955 -0.002001 0.000125 0.000878 0.003666 0.003901 0.001522 0.003355 -0.000429 0.001468 -0.002596 0.000842 0.000201 0.000876 -0.003754 0.000548 0.002996 -0.002778 -0.002998 0.002627 0.002275 -0.003782 0.002523 0.003753 -0.001983 0.000961 -0.000509 -0.001727 -0.002587 0.002500 0.001290 -0.001828 -0.001828 -0.002599 -0.003653 0.003247 0.001206 -0.003101 -0.000046 -0.002579 0.002633 -0.003847 -0.002616 -0.003655 -0.002903 0.001007 -0.000229 0.003456 -0.002977 0.002644 0.000570 0.001213 -0.001755 -0.002455 -0.000646 -0.001263 -0.001807 -0.002184 
f595f63a-3fd5-4f04-8a7b-bbec6db0d8bf 0.001927 0.001557 0.003551 -0.001405 -0.003461 -0.002356 0.001387 0.001162 0.002227 0.002346 -0.003014 0.003462 -0.000643 0.003185 -0.001079 0.001048 -0.000847 -0.001542 -0.003282 0.003610 -0.000258 -0.002666 0.002325 -0.002143 -0.003719 -0.001571 0.000523 -0.000907 -0.001939 0.000313 -0.002493 -0.003085 0.001560 -0.000237 0.001356 0.002790 -0.002674 -0.000011 -0.001378 -0.002872 -0.001281 0.000247 0.002946 -0.000770 -0.001469 -0.003107 -0.002256 0.003037 -0.002233 -0.001461 -0.002696 0.002065 -0.003045 -0.000574 0.001461 0.002696 0.000547 -0.000378 -0.002105 -0.000778 0.002887 0.000514 -0.001872 -0.002703 -0.001499 0.001720 0.003478 -0.003300 0.000818 -0.001794 -0.003591 -0.003369 0.002675 0.003710 0.001976 -0.003066 0.003374 -0.002279 0.002299 0.003794 -0.003437 0.001794 -0.001229 -0.002338 -0.003166 0.002749 -0.002879 -0.003032 -0.000686 -0.001129 -0.000907 0.003494 -0.002986 0.003825 0.002436 0.002026 -0.002904 0.003163 -0.000799 0.003298 -0.003257 0.002830 -0.002506 -0.001863 0.000438 0.000472 0.001977 -0.000658 0.000256 0.003325 0.001721 0.000133 0.000987 0.001638 0.002247 0.002264 0.003877 -0.002059 0.001936 -0.002673 -0.000445 0.001127 -0.003483 -0.000337 0.001118 -0.000277 -0.002267 -0.001237 
d458f5fb-d80f-4b59-89d8-b5656d343111 -0.002546 -0.001266 0.000812 -0.001497 -0.003027 0.002966 -0.003750 -0.001257 0.001625 -0.002534 -0.001732 -0.000911 -0.002012 -0.001415 0.000524 -0.000836 0.002670 -0.002013 0.002118 -0.001528 -0.002084 -0.003473 -0.000601 0.001315 0.001790 0.001148 0.000937 -0.002200 0.000270 -0.003715 -0.001995 -0.003124 0.003671 -0.001092 -0.001260 0.003699 0.001593 -0.002278 0.003658 0.001672 0.000703 0.002874 -0.000554 0.003339 -0.002346 -0.001148 -0.002870 0.003878 0.001152 0.003499 -0.003770 0.002981 0.002341 0.002394 0.002574 -0.000853 -0.000292 0.000567 -0.002997 -0.002814 0.001117 -0.000121 -0.001743 0.003276 -0.000207 0.003406 0.000093 0.001492 0.003119 0.003594 -0.003760 0.003342 0.001692 0.000831 -0.001763 0.000147 -0.003433 0.001395 0.001944 0.003579 0.003374 0.002371 0.003093 -0.003637 0.002813 -0.001583 0.002036 0.001900 -0.001612 0.002352 -0.003501 0.001061 0.002457 -0.002730 -0.003747 -0.001335 0.002078 -0.000362 0.003808 -0.000855 -0.000838 0.002650 0.002872 -0.001406 -0.003258 0.002732 0.000231 0.002697 0.002407 0.003481 -0.001262 -0.001949 -0.001140 -0.003216 0.001747 0.003581 -0.000494 0.002920 -0.003005 -0.003277 -0.001598 -0.002486 -0.003165 -0.002660 0.002816 0.002451 -0.003118 0.002481 
b6c4a5af-2ac2-4308-84ca-164d4a5678cd 0.002804 0.001231 -0.002337 -0.002774 -0.000766 -0.002939 -0.002988 0.003737 -0.003722 -0.003536 -0.003215 0.001511 -0.002706 0.001899 0.000849 -0.002315 0.000800 -0.003321 0.003409 -0.002133 0.001304 -0.001372 0.000866 -0.001787 0.000404 -0.001918 -0.003274 0.002357 0.002527 0.003641 -0.000670 -0.000519 -0.003003 0.001078 0.000428 -0.000045 0.002393 0.001929 -0.003141 0.002327 0.002998 0.002796 -0.003499 0.003725 0.001722 0.000645 0.000438 -0.002239 0.003711 0.002309 -0.003764 0.001689 -0.001261 0.001607 0.001179 0.002212 -0.001199 0.002921 0.002844 0.002327 0.003695 0.002122 -0.000080 0.003906 -0.002132 0.003713 -0.001513 -0.000974 -0.000227 0.000689 0.002562 0.000070 0.001371 0.003788 0.002601 0.001910 -0.001279 -0.000219 0.000744 -0.000048 -0.001839 0.003580 -0.001629 -0.003577 0.003714 -0.002121 0.000382 0.001475 0.003041 0.003238 0.000825 0.000559 -0.003376 0.002011 -0.003510 -0.003788 0.001568 -0.001921 0.000887 0.001954 -0.003412 -0.001693 0.003669 0.002679 -0.002621 0.002361 -0.003642 0.001441 0.002358 -0.002258 0.001630 0.002952 -0.001997 -0.000187 0.000429 -0.001016 -0.001871 0.000831 -0.001114 0.001350 0.001649 0.000613 -0.003519 0.000110 -0.000590 -0.001554 0.003670 0.002071 
362da072-46b7-43f4-a544-38b59004840d 0.001645 0.002939 -0.000669 0.000203 -0.003077 0.000603 -0.000701 -0.001363 0.002127 -0.003704 0.003175 0.001907 -0.003164 0.003895 0.001861 -0.002080 0.000597 -0.000691 0.003092 0.000474 -0.000849 -0.003168 0.002711 -0.002170 0.003900 0.003678 0.000201 -0.001404 0.001233 0.002845 -0.003281 -0.001109 -0.002498 0.001198 0.003711 0.003353 0.002185 0.003814 0.000320 0.002097 -0.001199 -0.001626 0.000501 -0.002872 -0.003901 -0.001854 -0.003816 0.003746 -0.001858 0.000767 -0.000120 0.003253 0.001451 -0.002675 -0.000039 -0.000921 -0.001549 -0.001688 -0.002690 -0.003623 0.001618 0.000005 -0.000908 0.002512 -0.002731 -0.001507 -0.002312 0.001316 -0.000344 -0.001676 -0.001932 -0.001471 -0.002910 -0.002007 -0.003363 -0.002444 -0.000159 0.000824 -0.001744 0.002937 -0.002842 0.002192 -0.002068 -0.003376 0.001900 0.001659 -0.001765 0.000083 -0.002053 -0.001229 -0.003249 0.003232 0.000121 -0.002344 -0.000985 -0.001746 0.002723 0.002605 -0.000956 0.000848 0.002984 -0.001466 -0.001486 0.000095 0.000541 0.000064 -0.001072 0.000733 0.002972 -0.000953 -0.001271 -0.002540 0.001009 0.003673 0.000017 -0.001791 -0.001848 -0.001033 0.002163 -0.001525 0.003614 -0.001629 0.002571 0.000224 0.003005 0.000617 -0.002482 0.000901 
fd6f2ffd-ea6d-4396-93d7-f1d829f8052d 0.000106 0.000277 -0.001246 -0.001350 0.003543 -0.003796 -0.000822 0.002352 -0.003172 -0.003545 0.001872 0.000252 -0.001944 0.001120 -0.000710 -0.003241 0.000930 -0.003691 0.001073 0.003154 0.003716 -0.002422 -0.001839 0.003379 -0.002177 -0.002155 -0.002756 0.002914 -0.002242 0.002175 -0.001663 0.001318 0.002882 -0.000228 0.003130 -0.001473 -0.003850 0.000878 -0.002762 0.000510 0.003063 -0.003296 0.001795 0.001551 0.003521 0.001365 -0.003107 0.002503 0.001062 0.002692 -0.000179 0.003238 0.003110 -0.003503 -0.000971 -0.002628 -0.002049 0.001511 0.003347 0.001241 0.002400 0.002979 0.001129 -0.003224 0.000229 0.003393 0.002904 -0.000056 0.001586 0.003351 0.001287 0.001574 -0.003407 -0.002736 -0.001716 0.000061 0.002094 0.002227 -0.003771 -0.002233 -0.001802 0.001621 0.000955 0.000920 0.000446 0.001488 0.003734 -0.003613 0.001755 0.003096 -0.001615 -0.000174 -0.001277 0.003793 0.000112 0.000139 0.000491 0.001471 -0.002537 -0.003700 0.000393 -0.002475 -0.000730 -0.001637 0.003891 -0.002925 -0.001401 0.001206 -0.000716 0.001330 -0.000051 -0.001860 0.003734 -0.001311 0.002032 0.003882 0.000803 -0.003677 -0.003564 -0.002239 0.003602 -0.002734 -0.000494 -0.001157 -0.002760 0.003827 -0.001937 -0.003649 
0624d585-851d-4cc9-a758-38a9ba0d292c -0.001531 0.000547 0.000962 0.001881 0.003906 0.001929 -0.000025 -0.000885 0.003626 -0.000753 0.002199 -0.002345 -0.001361 0.003814 -0.001930 -0.002166 0.003135 -0.000646 -0.003156 -0.000792 0.003505 0.002169 0.000455 -0.003260 -0.000533 0.001566 0.000762 0.001159 -0.000878 -0.000944 -0.001029 -0.000722 -0.000065 0.001551 0.003035 0.000511 -0.000682 -0.000447 0.001816 -0.000581 -0.003479 -0.003485 -0.003181 0.000525 -0.001760 0.003176 -0.003476 -0.002260 -0.002536 0.000546 -0.000551 -0.000057 0.000479 -0.003717 0.003767 0.002862 0.001226 -0.001553 -0.000688 -0.001177 0.001382 0.000136 0.003231 0.002610 -0.001219 0.002095 0.001351 -0.002472 0.003504 0.002756 -0.002821 -0.001352 -0.003585 -0.001585 -0.000683 -0.003302 -0.001125 0.001132 0.000784 0.003033 -0.003477 -0.000118 -0.000206 -0.001808 0.003031 -0.002477 -0.001731 -0.003321 -0.001068 0.002256 -0.003594 -0.000796 0.000169 -0.003252 -0.002311 -0.001825 -0.000728 -0.002018 0.003605 0.002969 0.002566 -0.003372 -0.003159 0.000769 0.000064 -0.001631 0.001582 -0.000796 -0.002304 0.002852 0.000938 -0.003745 0.003234 0.002073 0.003256 0.000212 0.001784 -0.002061 -0.001721 -0.000145 -0.000283 0.003608 0.001143 -0.000170 0.001058 -0.002883 0.003318 -0.002065 
4db4d8ce-2c52-45ab-b65e-eaeab83968ed -0.003789 -0.003484 0.002409 0.000770 -0.002419 0.000882 0.000721 -0.000772 0.001814 0.001693 -0.001360 -0.003587 0.000159 -0.003313 0.000368 0.001431 -0.000688 0.001484 0.000332 -0.002554 -0.001151 0.000926 0.002051 -0.000953 0.003600 0.001821 -0.001934 -0.001999 0.002327 0.000300 0.000550 0.003194 -0.003508 0.001262 -0.002657 0.001669 0.002649 -0.003121 0.001151 -0.000298 0.002864 0.002547 -0.003669 0.002058 0.001104 0.002581 -0.002113 0.002433 0.003708 -0.002200 0.003659 -0.000512 0.003789 -0.000534 -0.000368 0.002094 -0.001397 -0.002324 0.002496 -0.000872 0.002538 -0.001331 0.002482 -0.001926 -0.001154 0.002887 0.001552 -0.001608 0.003691 0.002644 0.002173 0.003904 -0.001871 -0.003769 0.001103 0.002659 0.003173 0.003554 -0.000328 0.002913 -0.001130 0.002021 -0.000930 -0.001010 0.001591 0.002154 -0.000082 0.002523 0.000470 0.001937 -0.001932 -0.002757 -0.003116 0.000321 0.003741 -0.000331 -0.003655 -0.003597 -0.002195 -0.002065 0.001380 -0.001547 0.000749 -0.002017 0.003202 0.000529 -0.003726 -0.003763 -0.002667 -0.002235 0.002255 -0.001394 -0.002477 -0.001946 -0.000268 -0.001327 0.002812 -0.000358 -0.002939 0.003697 0.001477 0.001746 0.002403 -0.002185 -0.002063 0.002073 0.001961 0.001393 
4d130c01-925b-4603-901b-8d6e86c8ba97 -0.003192 -0.000267 -0.003868 0.000621 0.002691 0.001854 0.003110 -0.002970 -0.002812 -0.002332 -0.001572 0.001277 -0.003619 -0.003404 0.000003 -0.001279 0.000354 0.000617 0.000922 -0.003298 -0.002601 -0.003077 -0.002171 0.003798 -0.003743 -0.002055 0.003271 0.000197 0.003131 0.001568 -0.000231 0.000481 -0.003054 -0.001771 0.000421 0.001567 -0.000710 -0.000719 0.001898 0.003044 0.003445 0.002371 0.002476 0.002013 -0.000447 0.001033 0.003773 0.001251 0.000970 0.001128 -0.003054 0.003108 -0.003659 0.002873 0.000472 -0.003299 -0.001921 -0.002948 0.001818 -0.003237 0.002410 -0.003363 0.002946 0.001085 0.000399 -0.003840 -0.001492 0.003031 0.003583 -0.002735 0.000757 -0.003635 -0.002958 0.000580 0.002510 -0.000476 0.002295 0.000779 0.000013 -0.002514 -0.001215 0.002171 -0.001700 0.000244 0.003529 -0.002080 0.003685 -0.001124 0.003007 0.000558 -0.003684 0.002563 -0.002187 -0.003420 -0.003199 0.000056 0.002565 -0.001288 0.001066 -0.002298 0.003795 -0.001661 -0.000964 0.000965 -0.000439 -0.000504 -0.000260 -0.002207 -0.001492 -0.000598 -0.002834 -0.001728 0.000551 0.003195 0.002593 0.001427 0.000962 0.000342 -0.000386 -0.001718 0.001007 -0.001791 0.002259 -0.000762 -0.003453 0.001184 0.002110 -0.000429 
ca40c8c7-8113-411f-b9ee-7319d9af0090 -0.001059 -0.001875 -0.003084 0.003327 -0.003418 0.003514 -0.001447 0.003520 0.001867 -0.002062 -0.002256 0.002561 0.000958 0.003819 0.001544 0.002436 -0.000496 -0.002396 0.003905 -0.002635 -0.002674 0.001146 -0.002793 0.003780 -0.003799 -0.000300 0.000649 -0.000183 0.001429 -0.002193 -0.002177 0.001599 -0.002582 -0.002982 0.000053 -0.000307 -0.001395 0.003589 0.002806 -0.001311 -0.000323 -0.001459 -0.002954 0.000443 -0.003261 0.001665 -0.001807 0.002050 -0.002867 -0.002213 -0.003282 -0.002442 0.002063 -0.002489 -0.003841 -0.000224 -0.003084 0.000742 0.003550 0.000878 0.003740 0.002403 -0.002609 -0.002466 -0.003600 -0.003842 0.003805 -0.000721 -0.001503 -0.001656 0.001308 -0.002596 0.000507 0.001062 0.003584 0.000567 0.000602 0.001637 0.001641 -0.002751 0.000921 0.001760 -0.002456 -0.001886 -0.001871 -0.001477 -0.001394 0.002763 0.003159 0.001295 0.001097 -0.002920 -0.003851 0.002888 -0.003567 -0.002466 -0.000069 0.001470 -0.002360 -0.001372 -0.001621 0.001669 0.001870 -0.003885 0.000158 -0.002428 -0.003854 -0.003150 -0.002364 -0.001110 0.000229 0.000415 -0.003524 0.001409 0.003789 -0.003815 -0.001490 0.002081 0.002715 0.000034 -0.003793 -0.001078 -0.000455 0.002483 0.001954 -0.002045 0.000989 0.000918 
c66e5ff6-23cc-4fd7-ac8d-24fd620dc0d5 -0.002755 -0.000572 -0.000825 0.001254 0.002320 0.002305 -0.002113 -0.002506 -0.003138 0.002984 0.000242 -0.001295 0.001204 -0.003012 0.001892 0.003633 0.000226 0.002342 0.003670 0.000462 0.002697 -0.000694 -0.000531 -0.003029 0.001333 -0.000374 -0.000525 0.001877 -0.001640 -0.001005 -0.002305 0.002046 -0.000349 -0.000054 -0.000265 -0.000219 0.001628 -0.000499 -0.003663 -0.001402 -0.001018 0.003796 -0.001359 0.001734 -0.001664 0.003059 -0.002782 -0.002291 0.003411 0.000433 -0.000068 -0.002813 0.003698 -0.003256 0.002845 0.001733 0.002500 0.001294 0.002343 -0.000074 -0.000837 0.002004 -0.003521 -0.003546 0.000432 -0.003738 -0.002265 -0.002245 -0.000838 0.000162 -0.002593 -0.001092 0.003167 -0.003146 -0.002437 -0.003105 -0.002272 -0.000470 0.003901 -0.003196 0.002663 0.002248 0.001709 -0.002948 -0.001871 0.001928 0.003563 -0.001702 -0.002773 -0.002453 0.003463 -0.001288 0.000513 0.001431 -0.003633 -0.003190 0.001135 -0.000106 -0.000623 0.003598 0.002238 -0.000277 -0.000851 -0.000694 -0.003379 -0.003822 -0.003809 0.000480 0.003094 -0.001013 0.000278 0.000884 0.000138 -0.001082 -0.000789 -0.001167 -0.000223 0.003577 -0.002643 -0.000608 0.000674 0.001555 -0.002254 0.000978 0.000875 -0.000759 0.000725 0.003203 
664f2f10-d6d0-4a1d-a1c8-d49c7c63ce4f -0.002610 0.002839 -0.001743 0.001639 -0.002811 0.000718 0.003812 0.002239 -0.002510 0.000362 -0.001959 -0.003667 -0.003061 0.002624 0.002147 0.000890 0.000259 -0.001962 -0.000853 0.002128 -0.000600 -0.001782 -0.003398 -0.003118 0.002552 -0.001017 -0.001096 0.000713 -0.000546 -0.002978 -0.001740 -0.001887 -0.002482 -0.001664 0.003650 0.001558 0.001571 -0.000346 -0.001851 -0.000582 0.001426 -0.001753 0.000142 -0.001443 -0.003666 0.003531 0.001634 -0.003671 0.003336 -0.003509 -0.001754 0.001846 0.000449 -0.002165 0.001286 0.003725 0.001696 0.003405 -0.003514 -0.003602 -0.003828 0.002424 -0.002395 0.001234 0.002843 0.001207 0.003248 -0.000756 -0.003299 0.002248 -0.002723 0.000706 -0.002955 0.001955 -0.003526 -0.003428 0.003183 0.003837 -0.003210 0.001387 -0.001972 0.001001 0.001506 0.002902 0.001751 0.002923 -0.001728 -0.003158 -0.002472 -0.002164 -0.001958 0.000147 0.000602 0.003819 0.002866 0.002394 -0.001044 -0.001619 -0.000065 -0.001270 -0.002257 -0.003197 -0.002727 0.001501 -0.002654 -0.001280 0.003165 0.002042 -0.003419 0.002892 0.003774 -0.001417 -0.000654 -0.002847 -0.002717 -0.000799 -0.000939 -0.001513 -0.001595 -0.001391 -0.002692 0.003325 0.001265 0.001770 -0.000225 0.001165 0.002000 -0.000627 
443776f0-9de1-4021-9aab-556965ea6b95 0.003817 -0.000105 -0.001431 0.000635 0.002605 -0.001088 0.001656 -0.002227 -0.003263 0.001518 -0.003791 -0.002728 0.002760 -0.000094 -0.000385 -0.001558 -0.000492 0.001924 0.000804 -0.001096 -0.000682 0.002280 -0.002340 -0.001567 -0.000933 0.002357 0.001049 0.000986 -0.002659 0.002212 -0.001604 0.002951 0.002266 0.001616 -0.001353 -0.001372 -0.002444 -0.003765 0.003074 -0.001222 0.002263 -0.002014 0.000340 -0.000489 -0.003557 0.003175 0.002159 -0.001082 -0.003314 -0.000056 -0.000797 -0.001299 -0.000974 0.001133 0.002040 0.002283 0.002861 -0.001214 -0.000118 0.001331 -0.002524 -0.001744 0.001922 0.001236 -0.000208 -0.003082 0.001841 -0.000629 0.001481 0.002921 -0.000955 -0.002091 0.000038 -0.001940 0.003113 -0.003736 0.003177 0.002707 -0.001211 -0.001920 0.001459 -0.001576 0.001125 0.001270 0.001655 -0.000966 -0.001596 -0.001807 -0.001459 0.002313 -0.001594 0.001368 0.001099 0.003716 -0.000931 -0.003192 -0.001401 -0.000378 -0.002448 -0.003379 -0.001816 -0.002577 -0.000614 -0.000792 0.003803 -0.000980 0.001071 -0.002539 -0.002209 -0.001500 0.001579 -0.000457 -0.001914 -0.000408 0.000488 -0.000487 0.002357 -0.000052 -0.000866 0.003022 0.001434 0.002530 0.001587 -0.001544 -0.001705 0.001134 0.000572 0.002196 
7d1648ba-ba05-4058-922f-c35711a96583 -0.000424 -0.003223 0.002533 -0.003345 0.003880 0.000803 0.000164 -0.001658 0.000588 -0.000099 0.000775 -0.003194 0.000284 -0.001959 0.002211 0.003633 -0.002407 -0.001796 0.001064 -0.003036 0.002669 0.001826 0.000584 0.002741 0.003496 0.003069 0.001513 0.001702 0.003264 -0.003760 -0.002914 0.002724 -0.000209 0.002924 -0.002650 0.001973 -0.003436 -0.003458 0.002461 -0.003420 -0.001698 -0.003459 -0.002995 -0.001119 0.002496 -0.001043 0.002186 0.001173 0.002330 -0.000039 0.000103 0.001089 -0.003196 -0.002138 0.001359 -0.001507 0.000033 0.003620 -0.000122 0.003670 -0.001331 0.000037 0.000261 -0.001025 -0.002155 -0.003149 0.002182 0.003087 0.003048 -0.003079 0.002133 0.000334 0.000175 -0.002727 -0.001397 0.001441 -0.000067 -0.003550 -0.001503 -0.001846 -0.002092 -0.000871 0.003053 -0.000032 0.002396 -0.002740 0.002330 0.001358 -0.003062 -0.003192 0.003396 -0.002580 -0.002515 -0.000960 -0.003723 -0.002119 0.000801 -0.002363 -0.000002 0.001146 -0.000337 0.002130 -0.000976 0.003339 0.002101 0.000488 -0.001635 -0.003824 0.003656 -0.003615 -0.000160 -0.002597 -0.001651 0.002702 0.002769 -0.002687 0.000780 0.001795 0.003465 -0.002130 0.000967 -0.003721 0.003033 -0.003262 -0.003755 -0.003205 -0.002142 -0.001025 
7591c18c-8350-456f-a128-03565253ae15 -0.002976 0.000514 0.002762 -0.001604 -0.003571 0.001181 0.001687 -0.002586 -0.003353 0.003271 0.002163 -0.003280 0.000102 0.002423 -0.002630 -0.000586 -0.000947 -0.000007 0.001893 -0.002101 -0.002668 -0.000166 0.003569 -0.001285 -0.002520 -0.002845 -0.002181 -0.000223 -0.003003 -0.001718 0.001665 -0.000137 0.002246 -0.003152 0.003248 -0.000929 0.002150 -0.000062 0.001877 -0.000208 -0.003837 -0.001549 0.000672 -0.001828 0.003033 -0.001360 -0.002550 -0.000977 -0.003606 0.001296 -0.000025 -0.002692 -0.001596 -0.001347 0.001863 -0.001787 -0.003802 0.000477 -0.000059 0.003299 -0.001679 0.003168 -0.002843 0.003501 -0.002512 -0.000722 0.001537 0.000228 0.000547 0.003773 -0.003470 0.001568 0.001405 -0.000871 0.002624 -0.000778 0.003092 0.002151 0.002432 -0.001811 0.003770 -0.001644 -0.002428 0.003257 -0.001796 0.001503 0.000804 0.003059 0.003231 -0.000280 -0.002639 -0.003609 0.002491 -0.001049 -0.000752 -0.000020 -0.001331 0.003302 -0.000108 -0.003535 -0.001830 0.002353 -0.000218 -0.003853 -0.000699 0.000373 -0.003573 -0.000591 -0.003607 0.001219 -0.000099 0.002099 0.000601 -0.000511 -0.001466 0.002651 0.003894 0.001104 -0.001465 -0.002985 -0.003648 -0.001136 -0.000396 -0.001752 0.002325 -0.003521 -0.000937 -0.003437 
23bf4b87-9d24-4ca6-9010-777c83fa1fbf -0.003870 0.001636 -0.001472 -0.003792 -0.003894 -0.000588 -0.003388 -0.002294 -0.000739 -0.002889 -0.002108 -0.003553 0.001269 -0.003115 -0.003746 -0.001522 -0.000702 -0.001066 0.001272 0.000007 0.000055 0.002377 -0.001917 -0.002142 -0.001205 -0.001365 0.003579 0.002094 0.001322 -0.002889 0.003847 -0.001224 0.000824 0.001880 -0.000833 0.002279 -0.002778 0.002611 -0.003833 -0.003271 0.002111 -0.000006 0.001581 -0.000300 -0.000211 0.003893 -0.002165 0.000869 0.002771 0.001063 0.001776 0.000970 0.000385 0.002531 -0.000728 -0.002529 0.001392 0.003410 -0.002373 0.001712 0.000426 -0.003509 -0.003660 -0.003587 -0.001084 -0.002600 0.000980 -0.003581 -0.003782 0.003899 -0.002120 -0.003401 0.003485 0.003369 -0.001198 0.001002 0.003828 -0.002054 0.002974 0.003140 -0.002787 -0.002743 0.001248 0.002105 -0.001007 0.002935 0.002627 0.002543 -0.002325 -0.002635 -0.003051 -0.002768 -0.001360 -0.000120 -0.001955 -0.002526 0.003190 -0.000248 0.003035 0.000699 0.002738 0.001067 -0.003546 -0.000480 0.001581 -0.003363 -0.001061 -0.000219 -0.000351 -0.003325 0.000087 0.003404 0.003346 -0.000317 0.001808 0.001680 0.003690 0.000039 -0.003865 -0.002668 -0.002318 -0.002146 0.002260 -0.000569 -0.000073 -0.003780 0.002381 0.001658 
9a25bb59-f475-44f3-9429-e96a1eb910e0 -0.003837 0.002176 -0.002362 0.002126 -0.002196 -0.002951 -0.001538 0.000866 -0.002294 0.001311 -0.003324 0.002079 -0.003885 -0.001678 0.000492 0.000176 -0.002349 0.002021 -0.003016 -0.003553 0.001812 0.002548 0.001203 0.001861 0.002469 -0.003153 0.003787 0.002141 -0.000973 0.000481 0.001426 0.002101 0.002422 0.003312 0.001517 -0.003383 -0.000443 -0.000341 -0.002156 0.000825 -0.000021 0.000896 -0.003859 0.002572 0.003400 -0.002968 0.000421 0.000945 -0.003770 0.001813 -0.000127 0.001722 0.003240 -0.000560 0.000022 0.000756 -0.002182 -0.002245 -0.002672 -0.001989 0.001635 -0.001812 0.003416 0.002945 -0.002503 0.001363 0.002497 0.003661 0.001822 -0.000707 0.002851 0.001126 -0.001362 0.002744 0.003425 0.002765 0.003422 0.000015 -0.002618 -0.001390 -0.002258 -0.002731 -0.002307 0.001795 0.003016 -0.002388 0.003470 -0.003097 0.003091 -0.001272 0.001552 0.002957 -0.000393 -0.000918 0.000130 0.000799 0.003580 -0.001230 0.001426 0.001969 -0.002844 0.000619 -0.003831 0.001018 -0.002864 -0.002362 -0.003760 0.002427 -0.003629 -0.000699 0.000736 -0.003123 0.000577 -0.003190 -0.002242 -0.000087 -0.000810 -0.002052 -0.001250 -0.003492 0.001844 0.000435 -0.003265 -0.001684 0.002533 0.003132 0.001537 0.002421 
4cb050b5-c346-431a-9fee-372a76c787dc -0.000954 0.002845 0.000505 0.003886 0.001001 -0.002731 0.003509 0.001305 -0.003262 0.003686 0.003415 -0.003751 -0.003629 -0.002913 0.002092 0.002984 0.001586 -0.002486 0.002614 -0.002880 -0.002003 -0.002173 -0.002310 0.000018 -0.001336 0.003745 -0.003079 0.002859 -0.002098 -0.002587 0.000848 -0.003246 0.003113 -0.000920 -0.002271 -0.003659 0.003761 -0.000921 0.000363 0.002901 -0.001653 -0.002808 0.003586 -0.002411 0.001022 -0.000265 -0.003045 -0.003248 0.000226 0.000473 -0.000817 0.002093 0.001954 -0.001146 -0.001167 0.002675 -0.002784 0.003545 0.002204 0.002143 0.001912 -0.003391 0.002627 0.001596 0.000892 0.001654 0.001769 -0.002581 -0.000917 -0.003109 -0.001271 0.002634 0.003672 -0.003869 -0.000583 0.002652 -0.000420 -0.000408 0.001042 0.002411 0.000030 -0.003075 -0.003613 -0.002336 0.000082 -0.002235 -0.000407 -0.003861 0.000864 -0.001230 -0.002513 -0.000516 0.002691 0.003104 0.000049 0.001386 0.001976 0.001295 0.000323 -0.001282 -0.000476 -0.001810 0.001716 0.000799 0.000398 0.002766 0.001131 0.002363 -0.002660 0.002984 -0.000054 -0.000923 0.003879 -0.001282 0.001579 0.003384 -0.003730 -0.002232 -0.002655 -0.001104 0.002298 0.001084 0.000924 0.002044 0.000769 -0.000582 0.000314 -0.002664 
8c44b0f2-31cc-4bdf-8101-cf00622cafe2 0.000247 0.002739 -0.000242 0.000621 0.001516 0.001386 0.002194 0.001800 -0.003604 0.000078 0.001053 0.001668 -0.003764 -0.002173 0.001072 0.000107 0.000124 0.002856 0.002450 0.002910 0.001223 0.002197 0.003347 -0.001929 0.003687 0.000772 0.003067 -0.001002 -0.003817 0.000792 0.000801 -0.003830 0.003867 -0.000642 -0.003476 -0.001330 0.000789 0.000121 -0.003271 -0.000693 -0.000142 -0.000317 0.000335 -0.002138 0.000799 -0.000715 -0.001285 0.002133 0.003859 0.002474 -0.003573 0.000674 -0.003757 0.002400 0.000651 -0.001219 0.001862 -0.002414 0.001544 0.002250 -0.000194 0.000741 0.000896 0.001390 -0.002561 0.001329 0.001912 0.003885 0.001028 0.002742 0.001883 -0.002892 -0.002077 0.001011 0.002152 -0.002143 -0.002105 0.002474 -0.001024 -0.000186 -0.002351 0.002033 0.000966 0.000111 0.002051 0.003781 -0.002349 0.001264 -0.002664 -0.002176 0.002941 -0.002019 0.002031 -0.001479 -0.003499 0.001335 -0.002902 0.003263 -0.003819 0.000458 0.001676 0.000475 -0.001442 0.000176 0.002150 0.003130 -0.002677 0.003484 0.000943 0.002097 -0.003756 -0.000840 0.002145 0.003104 -0.000132 0.003111 -0.002785 0.002568 0.000274 0.002804 0.002279 0.003606 -0.002290 0.001815 -0.000693 -0.002253 0.003125 -0.001771 
46006b13-3c66-44e4-9b86-f35064dcc87f 0.000556 -0.001617 0.003868 -0.001522 0.001465 0.002652 0.003584 -0.002166 0.001190 -0.000447 0.002107 0.001203 0.000797 -0.002586 -0.002833 0.002008 0.002301 -0.002981 0.002857 0.001392 0.000401 0.003695 -0.001808 0.000238 -0.002822 0.002854 -0.001393 0.001386 -0.001494 -0.002616 0.000162 -0.002591 0.001679 -0.001766 0.003214 0.001310 0.003323 -0.003720 -0.001842 0.001729 -0.001955 0.002140 0.002804 0.001608 -0.003124 0.002317 0.002729 -0.001547 -0.003112 -0.003511 0.001393 0.002643 0.001384 0.003362 0.000063 -0.001197 -0.001420 -0.003209 -0.002821 0.001374 -0.001825 0.003342 -0.000924 0.000023 0.002502 0.002675 -0.001133 0.000722 0.003822 0.002557 0.001356 -0.002813 0.001643 0.000181 -0.003906 0.000387 -0.001171 -0.001498 0.003323 -0.000110 0.001613 0.000177 0.001154 0.000355 -0.002088 -0.000610 -0.000621 -0.000858 0.001566 0.003542 -0.002066 0.001479 -0.003745 0.003492 0.001650 0.001636 -0.000455 0.002480 0.001215 0.003129 0.002686 -0.001022 -0.001794 -0.001414 -0.001202 0.002334 -0.000246 -0.002087 0.003511 -0.000095 -0.001802 0.001961 -0.000557 0.001420 0.001911 0.002529 -0.002360 0.001139 -0.000153 -0.000356 -0.001069 -0.000828 -0.003693 -0.000247 0.001442 0.000662 -0.001534 0.001428 
9e91d491-6b9a-43c7-992f-1c0689599132 0.000795 0.002847 -0.000522 -0.000194 -0.000646 0.003064 0.003595 -0.003415 -0.002678 0.002409 0.003370 -0.003045 -0.000543 0.002766 -0.002883 -0.001529 -0.002028 -0.000340 -0.003853 0.000732 -0.003652 0.003611 -0.001590 0.001016 0.003317 -0.000754 -0.000414 -0.001652 0.003609 0.000133 0.003256 0.001867 0.001888 0.001817 0.003578 -0.003648 -0.001952 -0.001154 0.003673 0.001396 -0.001902 0.001067 -0.003750 -0.002586 -0.003066 -0.003760 0.000946 0.003402 -0.001829 -0.002626 -0.001036 0.001510 -0.000500 -0.003182 0.000103 0.001162 0.000960 -0.003209 -0.003165 0.000278 0.003631 0.000855 0.001463 0.003527 0.001454 0.003209 -0.000878 0.003600 -0.003808 0.000953 -0.002939 -0.000509 -0.000830 0.003672 0.002941 -0.003156 0.002928 0.003005 0.003217 0.001856 0.003619 0.001551 0.000926 0.000652 0.002609 0.001263 -0.003586 -0.001862 -0.002228 0.003822 0.001589 -0.001117 0.002329 0.001256 0.002501 -0.003815 0.000167 0.001497 -0.000136 0.000353 0.000476 -0.003190 0.003280 0.000464 -0.000921 -0.002077 -0.000585 -0.000011 0.001481 0.002734 -0.003587 -0.002857 0.000955 -0.001023 0.000773 0.003451 -0.003627 0.002540 -0.002292 0.002640 -0.002211 -0.003561 0.002150 -0.001951 0.002914 -0.001290 0.001417 0.003779 
ecfcbaff-7079-4379-b211-fb4573fbae08 0.000837 0.001132 -0.001027 -0.002852 0.001892 -0.001437 -0.002439 0.003880 0.001780 -0.001556 -0.000008 -0.000901 -0.002504 -0.003447 0.001626 -0.001931 -0.001897 0.000969 -0.000812 -0.003201 0.003086 -0.001712 0.002433 -0.000205 -0.000100 -0.002823 0.003832 -0.000954 -0.000024 0.003532 -0.002164 0.002658 0.003582 -0.003684 -0.003265 -0.003343 -0.001245 0.000524 0.001860 0.000874 0.001866 -0.001768 0.002137 0.000880 0.002880 0.000740 -0.002196 0.002794 0.002533 -0.000678 -0.003680 0.000772 -0.003319 0.000411 0.001681 0.002429 0.001306 0.003362 -0.001113 0.003563 -0.003152 0.001607 0.001642 0.002737 0.002567 -0.001833 0.000956 0.001796 0.003323 -0.000852 -0.000061 -0.003084 0.001994 -0.000377 0.003697 0.000027 -0.001950 0.003645 0.001175 0.001453 0.001423 -0.000950 0.003174 -0.000464 -0.000607 -0.000891 0.001528 0.000306 0.001250 0.001372 -0.000417 0.003547 0.000331 -0.000804 0.002401 0.003352 0.001618 -0.002129 -0.000330 0.003888 0.001389 -0.001041 0.001592 0.000327 -0.003225 -0.001497 -0.003324 0.003792 -0.002329 0.001795 0.001084 -0.002212 0.001654 -0.001215 -0.001858 -0.001301 -0.001888 -0.003415 0.000173 -0.001548 0.001302 -0.001555 -0.000004 0.001005 -0.001161 0.002225 -0.002606 0.001043 
848cf96f-9658-4ff6-9ec7-bdd39d894e42 -0.002608 0.001929 -0.000635 0.000122 0.002243 -0.002333 0.002323 -0.002997 0.003064 -0.001478 0.002995 0.001591 0.002392 0.001149 0.001413 0.002905 -0.003583 0.001247 -0.002523 0.001142 -0.000140 -0.003710 0.001869 -0.002309 -0.002318 -0.001598 0.001008 -0.001412 0.000138 0.002449 -0.000150 0.001872 -0.001210 -0.001048 -0.003236 -0.002103 -0.000011 0.000309 -0.001348 -0.000066 0.003745 -0.001923 0.000862 0.001296 0.002931 -0.000520 0.000991 0.001339 0.003571 -0.001615 0.002392 -0.003451 0.000519 -0.002310 -0.001654 0.000953 0.003016 0.000839 0.002085 -0.000108 -0.002410 0.003469 -0.003552 0.002931 -0.002553 -0.003320 0.001171 -0.001611 0.003320 -0.002711 -0.001235 -0.001281 0.001507 -0.000629 0.002938 0.002634 0.003726 0.003077 0.002691 0.000718 -0.003280 -0.000592 0.003546 -0.001132 0.001553 -0.003376 0.000609 -0.001213 0.001155 -0.001784 0.003346 0.003636 -0.001455 0.002484 0.001473 0.003680 0.003364 -0.003836 -0.000348 0.002237 -0.001781 -0.003475 0.002576 -0.002308 0.002752 -0.002832 0.000013 -0.002485 -0.002098 -0.003030 -0.002546 0.003479 0.000145 -0.001347 0.001309 -0.002860 0.001276 0.000155 -0.003514 -0.002399 0.001061 -0.001886 -0.002833 0.001854 -0.003264 0.003199 -0.002312 -0.003082 
b3f62fd2-08db-4de9-a152-b053bddbdfdd 0.001274 0.002567 -0.000899 -0.002444 -0.000717 0.002839 0.001004 0.001142 0.002922 0.000414 -0.002099 0.000811 -0.003340 0.002575 -0.003785 -0.000678 0.003841 -0.002441 -0.001338 -0.003772 -0.000647 0.000086 -0.002101 0.001246 0.002756 -0.003880 -0.001362 -0.000531 0.001971 -0.001448 0.001559 -0.003865 0.002241 -0.000314 0.003474 -0.000909 -0.001072 0.000956 0.001789 -0.003676 -0.003037 -0.000508 0.002996 -0.002340 0.000521 0.002612 -0.000184 0.002685 0.001979 -0.003277 0.002680 0.003046 0.003119 -0.003618 -0.003613 -0.001629 0.003872 -0.001538 0.001403 0.001173 -0.000618 -0.001596 0.001258 0.002134 -0.001191 0.002885 0.001426 -0.003846 -0.002723 0.000571 -0.003208 0.001514 0.000323 -0.002846 0.003717 0.000612 0.001003 -0.001783 -0.003726 0.000302 0.001196 -0.000739 -0.003548 -0.000360 0.000705 -0.000762 0.001642 0.000563 -0.001182 0.003184 -0.000825 -0.002232 0.002232 -0.000962 0.001267 -0.002647 -0.001913 -0.000756 -0.001447 0.000500 0.003179 -0.000583 -0.000056 0.001762 -0.000337 -0.000657 0.002304 0.000732 0.001155 0.001100 0.002996 -0.001473 -0.002997 -0.003229 0.000348 0.001308 0.003035 0.001137 0.001350 0.002273 -0.002186 0.001212 -0.002753 0.003390 -0.003885 0.003007 -0.003346 0.001453 
791a3e3b-ca81-4452-aa5b-196b66860796 -0.000384 0.002075 0.000628 0.000387 -0.001284 -0.003454 -0.003550 0.003385 0.001521 -0.001497 0.003079 0.003736 -0.003645 -0.001738 0.001240 0.001691 -0.001451 -0.000378 0.002863 0.002045 -0.001078 0.003420 -0.001159 0.000416 0.003770 -0.003520 0.001100 -0.003237 -0.002833 -0.001573 -0.003876 -0.003163 -0.003747 -0.003775 -0.001833 -0.002596 -0.000968 -0.001408 0.003658 0.001892 0.003191 0.001080 0.003799 -0.000215 -0.002973 0.000242 -0.002530 0.003291 -0.000593 -0.003903 -0.002614 -0.003502 0.002997 -0.003683 0.002878 -0.000095 -0.000760 0.000409 0.002530 -0.003832 0.001817 0.000757 0.003517 -0.001922 -0.002932 0.002244 0.002413 -0.003195 0.003738 0.003543 0.003689 0.001093 -0.001350 -0.003497 0.000688 -0.000794 0.000040 -0.002961 0.001841 -0.000377 0.002661 -0.000138 0.001299 -0.002109 0.001699 0.003304 0.000175 0.002217 0.002738 -0.003458 0.001010 -0.003551 -0.003000 0.000817 0.003528 -0.003546 0.002220 0.002244 0.002434 0.000435 -0.000037 0.000624 -0.000322 -0.002995 0.002521 -0.003754 0.000695 0.003417 0.002103 -0.001553 -0.000764 0.000923 -0.003616 0.002919 -0.001584 -0.002554 -0.000631 -0.001899 0.002291 -0.001394 -0.002728 0.002336 0.002146 0.000123 0.000542 -0.003194 0.001183 0.001347 
56fb285e-cf57-4e9d-b5a2-4e5bf80276de -0.001155 0.002906 0.002951 -0.000959 0.000048 -0.003671 0.003059 -0.001489 0.002826 -0.002336 0.001208 -0.002398 0.002145 0.003396 -0.003360 -0.002677 -0.003269 -0.001078 -0.001197 0.000255 -0.001882 -0.000914 -0.000492 0.003855 -0.000451 0.002250 -0.001916 -0.002012 -0.001763 -0.002711 0.003107 -0.001335 -0.003475 0.002775 0.000698 -0.002366 -0.002678 -0.003514 0.000478 0.000417 -0.002520 0.003571 0.000722 0.001206 0.002303 -0.001616 -0.000576 -0.003120 0.002356 -0.002318 0.002215 -0.002062 -0.001747 0.000206 -0.002432 -0.002001 -0.001014 0.001910 -0.001321 0.000262 0.001334 -0.000342 -0.002536 0.000099 0.000911 0.001725 0.000368 -0.001269 0.003350 -0.003024 -0.000760 0.001841 0.000224 0.002631 0.000084 -0.000043 0.003208 0.001856 0.002032 0.001637 -0.000475 0.000469 0.002439 -0.000887 0.000297 -0.001617 -0.001413 -0.000073 -0.002025 0.003484 -0.000590 -0.003620 -0.003345 0.000793 0.002081 -0.001452 0.001763 -0.003231 0.001564 0.002658 0.000110 -0.003078 0.003613 -0.002841 -0.003516 -0.002465 -0.000066 0.003276 -0.002848 -0.001900 0.000982 0.002367 -0.001371 -0.001928 -0.000803 -0.003097 -0.002907 0.000182 -0.002810 0.002670 -0.001334 -0.000467 -0.002867 0.000282 -0.000925 -0.003664 -0.000075 0.002976 
5fded05d-e1fa-4ae5-8a91-fb85d02ed7dd -0.003461 0.003190 -0.001270 0.000085 0.001245 0.001207 -0.003333 -0.001026 -0.002411 0.001813 -0.003743 -0.001181 -0.000245 -0.000031 -0.000265 0.003012 -0.001503 -0.001669 0.003199 0.003700 0.003339 -0.002065 0.001031 -0.003014 0.002078 -0.001692 0.003208 0.001082 0.002399 0.002836 -0.002118 -0.002921 -0.003830 -0.002097 -0.001362 -0.002827 0.003408 0.003216 -0.000594 0.003786 -0.002578 -0.002248 -0.000101 0.001889 0.000929 -0.001569 0.002677 -0.002016 -0.001589 0.002209 -0.003750 -0.001939 0.001383 -0.001626 -0.002783 0.000465 -0.002239 -0.003881 0.001786 -0.002439 -0.002978 0.000740 -0.002206 -0.000357 0.003896 0.000702 -0.003060 -0.003166 -0.000534 0.000516 -0.003819 -0.002576 -0.003197 -0.002417 -0.000137 0.003724 -0.000000 0.000449 0.003725 0.001359 -0.003761 0.002261 0.002057 0.002777 -0.002747 -0.000946 -0.002761 0.002153 0.002006 -0.002093 0.002655 -0.000359 -0.001491 0.003031 0.002589 -0.000971 0.001611 0.002963 0.000694 -0.003864 0.002470 0.001603 0.003479 0.002623 -0.001561 -0.000907 0.000090 -0.002452 0.002514 -0.003484 0.003556 -0.000202 -0.002079 0.000730 0.003872 -0.002542 0.002659 0.001758 -0.000362 -0.002438 -0.001403 0.000600 -0.002329 0.002619 -0.000655 -0.002607 -0.001094 -0.002356 
c350aa19-5f13-41f1-a523-05442f3ddd59 0.000841 0.003223 -0.000833 0.001385 -0.002836 -0.003648 0.002619 -0.000563 -0.003479 0.003573 0.002321 0.000295 0.002094 -0.003097 0.003385 0.001864 -0.001218 0.002007 0.002786 0.000692 0.001420 0.000142 0.002471 0.000073 -0.000489 -0.002818 -0.000593 0.001490 -0.000630 -0.001287 -0.000796 0.001641 0.001355 0.001327 0.002297 -0.002290 0.003714 -0.003076 0.001480 -0.000323 0.003526 -0.001416 0.002294 -0.002340 0.000340 -0.001125 0.003512 0.000255 -0.003594 0.001984 0.003882 -0.001876 -0.000873 0.001466 0.003632 0.000047 -0.003823 -0.001881 -0.003398 0.003499 0.002658 0.000107 -0.000387 0.000088 0.002315 -0.001739 -0.002255 0.002933 -0.000641 -0.000690 0.000604 0.000982 0.002929 0.000608 0.002270 -0.000768 -0.003331 -0.003095 0.000977 0.002994 -0.003296 -0.003518 -0.003796 0.003572 0.000501 -0.003413 0.002027 0.003211 0.000193 -0.002969 0.002263 0.003858 0.003494 0.001904 0.003393 -0.002409 0.001401 0.002315 0.001456 0.000459 -0.002320 -0.000498 0.003271 0.003511 0.000282 -0.001289 -0.003717 -0.000048 0.003744 0.001940 -0.000392 0.001266 0.003337 0.000264 -0.003206 -0.001879 -0.000288 0.001641 0.000081 -0.002362 0.003562 0.001174 -0.000201 -0.000904 -0.000961 0.000035 0.001799 0.000595 
bbc7af9a-3822-4541-9c09-5aee40e6feaa 0.002213 0.000172 0.003524 0.001744 0.000774 -0.003765 0.001782 0.001077 -0.000997 0.003840 0.003040 -0.001344 0.002516 -0.002066 -0.000538 0.003861 0.001532 -0.000133 0.001339 0.002610 -0.002900 -0.000535 -0.003214 -0.001504 0.001882 0.000913 -0.003758 0.002305 -0.001334 -0.001187 -0.001569 -0.002989 -0.000103 -0.000563 -0.000389 0.003006 0.003895 0.002922 -0.000031 -0.002773 -0.001119 -0.001084 -0.003818 -0.001564 -0.002041 0.000809 -0.000076 0.002005 -0.001631 -0.000833 0.001034 -0.001669 -0.003394 0.000151 0.001078 0.000423 -0.000416 -0.001733 -0.003072 0.002291 -0.000624 0.002358 0.001048 -0.003205 0.000161 0.003266 0.001546 -0.001965 0.002389 0.002047 0.003361 0.001609 0.001563 0.002813 -0.001029 -0.000294 0.000389 0.003132 0.002162 -0.000001 -0.002059 0.003259 0.001064 0.001208 0.001483 -0.003185 0.003063 -0.000672 0.001128 0.003235 -0.003471 0.000829 -0.000111 0.003063 0.001989 -0.000390 0.000203 0.000456 -0.001392 0.003415 0.000444 0.003680 0.000167 -0.003831 -0.003750 -0.000493 -0.003894 0.000070 0.001114 0.001363 0.000552 -0.001105 0.002941 -0.002843 0.003038 0.003532 0.003832 0.001601 0.001326 -0.002213 -0.002694 -0.000084 0.003793 -0.001426 -0.001042 0.003367 0.002098 -0.000207 
ec292d98-c313-4b68-af46-b982aa5bf7c4 0.002364 -0.000467 0.000071 0.001622 0.003185 0.000558 0.001650 -0.003531 0.002375 0.002048 0.001659 -0.000710 -0.003815 0.003805 -0.002821 0.000012 0.003442 0.002236 -0.003339 0.000897 -0.002393 -0.003428 0.003118 0.001538 0.001096 -0.001295 0.000745 -0.001924 0.001746 0.002451 -0.002529 0.001302 0.003708 -0.003043 0.000141 -0.003757 -0.002344 0.003506 -0.001748 -0.003704 -0.001475 0.001667 -0.002971 -0.002646 -0.001826 -0.002497 0.003882 0.000605 -0.003195 -0.001780 0.001203 0.003175 -0.000396 -0.002490 -0.002933 0.000336 0.001803 0.001630 -0.000721 -0.000014 -0.002932 -0.002682 -0.003476 -0.000637 0.001172 0.000970 0.003006 0.002864 0.000835 -0.003562 0.000313 -0.000360 -0.000595 0.002428 -0.003013 0.003290 -0.001067 -0.001272 0.000450 0.002028 -0.003436 -0.000869 -0.003241 -0.000251 -0.001129 0.000276 -0.001497 -0.003624 -0.000766 0.000526 -0.001537 0.001980 0.000018 -0.002209 -0.001269 0.003361 0.001207 -0.003654 -0.000188 0.001031 -0.001792 0.001883 0.002185 -0.003791 -0.003610 0.003573 -0.001399 -0.001101 -0.000853 0.000527 0.001802 -0.000824 0.000503 0.001099 -0.000011 -0.003836 0.001526 -0.002265 0.001902 0.003413 0.003444 0.002083 0.001345 0.000143 -0.003248 0.002412 -0.000397 -0.002918 
f8909443-3c1a-4f59-864c-97c24d57c5d3 0.000155 -0.003065 -0.000636 0.000905 -0.001906 -0.001761 0.001457 0.000704 0.000271 -0.001398 -0.001072 0.001887 -0.001853 0.002010 -0.002251 0.000015 0.001956 -0.001955 -0.000857 0.002775 0.001339 0.000836 0.002161 -0.000192 0.001743 -0.000955 0.003763 -0.000778 0.000585 -0.003691 0.003016 -0.000340 -0.002320 -0.002606 -0.003556 -0.002711 -0.002315 0.002280 0.002397 -0.001812 -0.002520 -0.003751 -0.000084 0.002668 0.002196 -0.001797 -0.000363 0.002298 0.000298 -0.000980 -0.000584 0.003080 -0.003879 0.000631 0.003132 -0.001660 -0.000976 0.003233 0.003813 -0.001485 -0.002763 0.002890 0.000153 0.002375 0.003078 0.003191 0.002246 0.001202 0.002296 0.001655 0.001868 0.002040 0.003589 0.001413 0.003760 -0.002511 -0.002379 0.001069 -0.000521 0.000945 -0.001854 -0.002381 0.003713 -0.003353 -0.001991 0.002220 0.003385 0.001559 -0.003008 0.002128 0.001931 0.002514 -0.003219 0.001396 0.001274 -0.003123 0.002851 0.003354 0.002309 0.001748 -0.001173 -0.002863 -0.000765 0.002125 0.003453 -0.001213 0.001676 -0.000071 0.003853 -0.001739 -0.002568 0.001509 0.000191 0.003499 -0.000837 -0.003863 0.002325 0.001617 0.001919 -0.002498 0.002594 -0.002856 0.002639 -0.002427 -0.000273 0.002062 0.002263 -0.001395 
6a2cadbf-0d19-4222-ba95-841a6f23a915 -0.001547 -0.001141 0.000846 -0.002943 0.002438 0.003212 0.002015 -0.000240 -0.002123 -0.003412 -0.001577 0.001748 0.003322 -0.000200 0.000028 -0.000796 0.002791 0.002232 -0.002354 -0.000132 -0.003513 0.000245 -0.002779 0.003157 -0.003900 -0.002172 -0.000939 -0.000942 -0.002333 0.001451 0.003816 -0.003748 0.000108 -0.001836 -0.001916 0.000154 0.000818 0.003580 0.001447 -0.001769 -0.002614 -0.003086 0.002786 -0.001752 -0.002863 0.001594 0.000507 -0.002861 0.001056 0.003597 -0.002022 -0.003543 0.002863 -0.002691 -0.003098 -0.003217 0.001046 -0.000527 -0.003795 0.001129 0.002114 0.000713 0.000093 -0.001246 -0.002737 -0.000099 0.003780 -0.001500 0.000082 -0.002907 -0.000376 -0.002855 0.002496 -0.003442 0.003418 -0.001273 -0.000922 -0.002822 0.002932 0.001600 -0.000587 -0.001689 0.000351 -0.001127 -0.001017 -0.001592 0.003818 0.002728 0.000102 -0.001170 -0.000900 -0.002354 -0.001306 -0.002027 -0.001220 -0.002897 -0.002789 0.003787 -0.003141 -0.000604 -0.001479 0.002907 -0.003501 0.001515 0.002006 0.000424 0.001279 -0.000440 0.003587 -0.001799 -0.002939 0.001790 -0.002536 0.002325 0.002366 -0.001576 -0.003068 -0.002083 0.003396 0.000245 0.001720 -0.002495 0.000039 -0.003666 -0.000451 -0.000370 0.002453 -0.002285 
0bb73a95-fff6-40fe-a670-8ddc26c2b338 0.002937 0.002524 0.002162 0.003570 0.000557 0.002013 0.001869 -0.001212 -0.003103 0.003808 0.000695 -0.002188 0.000482 -0.000502 -0.001571 -0.002942 0.003367 0.002026 -0.003808 0.002043 -0.000090 0.003699 0.002022 -0.003825 -0.000131 0.000622 -0.001546 0.001730 -0.000532 0.003239 0.001727 -0.001618 0.002955 0.003420 0.002411 -0.000165 0.003580 -0.002516 0.003045 -0.000765 0.000915 -0.003470 -0.002757 -0.002015 0.002492 -0.001536 -0.003502 0.000506 0.000744 0.001539 0.003828 0.002059 -0.001759 0.002528 0.001423 0.000635 0.001866 -0.003129 -0.000117 -0.002503 -0.003553 0.002025 -0.002545 0.001778 -0.001825 -0.003638 -0.001579 0.003713 0.002989 -0.002030 0.001530 0.002210 0.000595 0.003827 -0.001715 -0.003327 0.002117 -0.001932 0.001320 -0.002487 0.002011 -0.000159 0.002063 -0.003488 0.001962 0.000072 0.002935 -0.001633 0.001771 -0.000181 -0.000181 -0.000127 -0.001022 -0.000431 -0.002433 0.002448 0.003832 0.003685 -0.003227 -0.000834 0.001960 -0.001258 0.003329 -0.001459 -0.003660 0.001220 -0.001010 0.002801 -0.001554 0.000474 0.002602 0.002894 -0.001405 0.001813 -0.003864 0.001711 -0.003692 0.003438 0.001454 0.002783 0.003527 0.002690 0.003808 -0.000651 -0.000075 -0.001840 0.000191 0.002633 
8083d13c-7dce-4977-b2d8-0c21bf54f85a 0.001771 -0.000565 -0.003253 0.001802 0.002512 -0.000249 -0.002749 0.000725 -0.001763 -0.003601 0.001204 0.002042 0.001327 -0.002946 0.002291 0.003010 -0.003780 0.000087 0.002229 -0.001447 0.003247 0.002362 -0.003067 0.003588 0.003183 0.003072 -0.001412 0.001945 0.003552 0.002412 0.001582 0.002288 0.000323 -0.002245 -0.000519 0.002569 -0.001171 -0.000435 0.000068 -0.003454 0.003819 -0.000591 -0.002825 0.003569 0.001832 -0.001776 0.002605 -0.002629 0.002057 0.003785 0.003102 -0.003687 0.002632 -0.003866 0.000352 0.003309 0.003208 -0.003513 -0.001001 0.003210 0.001062 -0.003802 -0.000932 0.002733 -0.002161 -0.001530 -0.001592 0.000409 0.001065 -0.000274 -0.000933 -0.003361 0.000640 -0.000762 -0.000239 0.001632 -0.001782 -0.003235 -0.000418 0.002891 -0.000641 -0.003516 0.002958 -0.001551 -0.000526 0.000372 -0.003710 0.002841 -0.001524 0.001557 0.003476 -0.000810 -0.002993 -0.000175 0.003256 0.002216 0.001353 0.002930 0.003077 0.002423 -0.002273 -0.003150 -0.002273 0.003131 0.001165 -0.002948 -0.001937 -0.001245 -0.000925 -0.000144 -0.001287 -0.003390 -0.003745 0.000650 -0.000248 0.000956 -0.002949 -0.000392 -0.001887 -0.000938 -0.001355 -0.002405 0.001242 0.000833 0.003030 -0.003334 0.002182 -0.000126 
d90c8414-efd0-47b4-97c9-d6b09de8d529 0.003562 -0.002579 -0.002725 -0.003466 0.000447 0.000229 0.000357 -0.000124 0.003043 -0.003272 -0.000296 -0.000233 -0.002905 -0.002976 -0.000054 0.001946 0.002912 -0.000122 0.000234 -0.001051 0.000092 0.003512 0.003511 -0.000195 -0.003383 -0.002983 -0.003803 -0.001282 0.000860 -0.001469 0.002539 -0.002281 0.002694 -0.000688 0.001460 -0.000942 0.003508 -0.002935 -0.002344 -0.003612 -0.001791 0.001081 0.003549 -0.002289 0.003679 -0.002769 -0.002749 -0.000255 -0.002288 -0.002424 0.003786 0.001378 0.003538 -0.001446 -0.002452 -0.000695 -0.003561 0.003761 -0.000208 -0.001171 0.000386 -0.002205 -0.001186 -0.001455 -0.003476 0.003738 -0.003670 -0.002500 0.003599 0.001365 0.003005 -0.000796 -0.000956 0.002721 -0.002422 -0.001445 0.001760 -0.000339 0.000676 -0.003629 0.000925 0.001858 -0.003516 -0.003633 -0.002826 -0.002932 0.001835 -0.002018 -0.003250 -0.002530 0.000241 0.002418 -0.001607 0.003868 0.001365 -0.001576 0.001067 -0.003114 -0.001843 -0.000145 0.001993 -0.002119 -0.003794 -0.000009 -0.002551 -0.003800 -0.003096 0.000586 0.002681 -0.003545 -0.000393 -0.003753 0.001828 -0.001941 -0.001858 0.001799 0.000461 -0.003375 -0.002239 0.003250 -0.002122 -0.000816 -0.003335 -0.001869 -0.002932 0.002175 -0.002742 -0.002002 
8542c4b9-e2ea-41d7-ae9f-bd5afbafb315 0.003326 -0.003900 -0.002282 -0.002125 -0.002493 -0.000466 0.003370 0.000990 0.000858 0.002769 -0.003281 0.000579 -0.000797 -0.002780 0.002918 -0.001389 -0.000986 0.001064 -0.000100 0.003533 -0.001663 0.002418 0.002865 0.002687 0.001188 -0.000239 0.003155 0.000607 0.002910 0.003620 0.003450 -0.003033 0.002890 0.000238 -0.003288 0.000609 0.003375 -0.000939 -0.001996 0.000322 -0.003899 0.000719 0.000014 -0.003393 -0.002978 -0.000508 0.000515 -0.000544 -0.001939 -0.002413 0.003823 0.002653 -0.002284 -0.003224 0.003844 0.003682 0.002891 -0.000608 -0.000754 0.001618 -0.000275 -0.000125 0.001428 0.003024 -0.003297 -0.001136 -0.000078 -0.000511 -0.002768 -0.002420 0.002135 0.001510 -0.002879 -0.003312 0.002683 -0.001397 -0.003010 -0.003551 -0.000764 0.000664 0.000024 -0.001091 0.003880 -0.000796 0.000721 0.001123 0.002839 0.003500 -0.002417 0.003599 0.001064 -0.001930 -0.003709 -0.000476 0.002994 -0.000029 -0.002722 0.000209 0.003453 -0.000168 -0.003256 -0.000190 -0.003723 -0.003649 0.002820 -0.002742 -0.003502 0.001933 0.002186 0.001907 -0.002278 0.002636 0.003864 0.000199 0.001183 0.000090 0.001707 -0.002649 -0.000963 0.001383 -0.002040 0.001995 0.001483 -0.001365 -0.000282 -0.002540 -0.001880 -0.000439 
be8865dc-1996-408f-aab8-6d238bda6e21 0.000307 0.001230 -0.003224 -0.000009 -0.000423 0.003198 -0.002446 -0.003264 -0.000875 0.002820 -0.000438 -0.000922 -0.002557 0.003649 0.001615 0.002119 0.003398 -0.002388 -0.000769 0.002843 -0.002512 -0.002210 0.003629 -0.000165 -0.002950 -0.001807 -0.002430 -0.001483 -0.002348 0.002900 0.000658 0.002111 -0.003543 -0.002654 -0.001280 0.003720 0.002618 -0.003709 0.003641 -0.001191 -0.001707 0.002197 -0.001718 0.002219 -0.002466 0.000735 0.001592 0.003058 0.002572 -0.000969 0.000740 -0.002142 -0.003065 -0.001019 0.001001 -0.003716 0.001505 -0.002797 0.002713 -0.000858 -0.003020 -0.002311 -0.000195 -0.000768 -0.003313 0.003723 -0.003298 -0.003010 0.002890 -0.001409 -0.002516 0.003325 -0.002279 -0.001197 0.003169 -0.001844 -0.001236 0.001878 0.002239 -0.003238 0.002288 -0.001665 -0.001886 -0.002883 0.000406 0.002756 -0.003835 -0.000605 -0.003270 0.000142 0.001795 0.003632 0.003661 -0.003222 -0.000933 -0.002971 0.000575 0.001531 0.000447 0.000966 0.000125 0.001794 -0.003469 0.001692 -0.001244 0.002190 -0.002114 -0.001165 -0.002249 0.002742 -0.002128 0.003508 0.003712 0.000253 0.001689 0.001395 -0.000545 -0.001021 -0.002588 0.001673 -0.002619 -0.002852 -0.001377 -0.000359 0.002227 -0.002094 0.003137 -0.002654 
9b290e13-e0c5-4d4e-bcef-f40cd96900ef -0.002794 0.002137 -0.001428 -0.002862 0.002798 0.003423 -0.002048 0.000511 0.002552 -0.001653 -0.002585 0.001324 -0.003603 -0.000095 0.000338 -0.000511 0.001782 -0.001603 0.001750 0.003506 0.000961 0.002772 -0.003247 -0.000941 -0.001704 -0.003767 -0.001258 0.002657 0.003714 -0.003703 0.002693 0.001821 -0.003231 -0.000683 -0.003187 0.001307 -0.000022 -0.000322 -0.003087 0.000312 0.003363 -0.003510 0.003638 0.002955 0.001683 -0.001718 -0.002433 -0.003622 0.003482 0.001039 -0.002695 -0.001272 -0.000012 -0.003042 -0.001298 0.002005 0.003002 -0.002930 0.000018 -0.002009 -0.000820 0.000109 0.001475 -0.001854 0.000160 0.000151 -0.003480 0.001342 -0.003127 -0.003351 -0.000523 -0.000001 -0.002508 -0.002168 0.001935 0.001923 -0.003574 -0.003288 -0.003722 0.002169 -0.000886 -0.003389 -0.002226 -0.000577 -0.003094 0.002941 0.000516 -0.000980 0.001168 0.003473 0.001729 0.003351 -0.000358 0.002269 -0.001481 0.002102 -0.001123 -0.003320 -0.002188 0.002116 0.000149 0.001666 -0.001773 -0.000039 0.002378 0.003018 0.000299 -0.000502 -0.003370 -0.001563 0.003763 0.000954 -0.001148 0.000225 0.001446 0.001311 -0.000521 0.002293 -0.001197 0.002820 0.001568 -0.003810 -0.001683 -0.000864 0.002674 -0.000209 0.001239 -0.001609 
974b0aa1-2105-46f4-9890-74e3f9c82db7 -0.000296 -0.003408 -0.000220 0.003703 0.001215 0.003255 0.003624 0.000535 0.003265 0.003036 0.001036 0.003625 0.000319 -0.000720 0.001927 -0.001036 -0.000699 0.001724 0.002264 -0.002127 -0.002958 -0.000872 -0.003140 0.001316 0.002731 0.001636 0.001899 -0.001831 0.000623 -0.003642 0.000008 -0.000855 0.002186 -0.000479 -0.001914 0.002625 -0.003006 0.001828 0.001344 0.003463 -0.001565 -0.001820 -0.000005 0.003526 0.001355 -0.000040 -0.001379 0.002225 0.000812 0.002284 -0.002843 0.003901 -0.001543 -0.000265 0.000393 -0.003079 -0.002725 -0.000457 -0.003824 0.003818 -0.002869 0.000729 0.002668 0.001084 -0.000329 -0.002454 -0.000178 0.003285 0.003775 -0.000816 0.001696 0.000702 0.000119 -0.000934 -0.001177 -0.001687 0.000711 0.002874 0.003823 0.001559 0.002600 0.001789 -0.000212 0.001396 -0.000255 0.000061 0.001175 -0.000590 -0.003076 -0.000984 0.003327 0.000460 -0.000950 -0.000244 -0.000915 -0.001974 0.000083 -0.003036 0.002677 -0.003079 -0.000393 0.002630 0.001543 -0.003049 0.000920 0.001799 0.002837 -0.002159 0.003107 -0.003652 0.001518 0.003678 0.003435 -0.000173 -0.002290 0.001252 -0.000903 -0.001251 -0.000392 -0.000069 -0.003154 0.001168 -0.000998 -0.001927 0.003897 0.000444 -0.003688 0.002667 
3ecb9849-db10-41a7-b6d0-b32a5a919cd1 -0.002068 -0.003205 0.001009 -0.000338 0.001510 -0.002593 0.001212 0.001542 0.001911 -0.001807 0.000445 -0.002050 -0.002192 -0.001189 -0.001325 -0.000498 -0.002322 0.000816 -0.001534 -0.001492 -0.003367 0.002825 0.000766 -0.003076 -0.002058 -0.002527 0.002788 0.002759 0.002826 0.002126 0.001635 -0.002371 -0.002410 0.003012 0.003447 -0.000756 0.002289 0.000979 0.002641 0.002736 -0.000951 -0.000521 0.001339 0.002778 -0.000440 -0.002009 0.002315 -0.002435 -0.000443 0.003348 -0.001334 -0.003078 0.001662 -0.002808 0.002922 -0.001880 0.002854 -0.002989 -0.001828 -0.001470 0.002941 0.000556 0.002367 0.000888 0.000598 -0.002041 0.003357 0.002174 0.002121 -0.002403 0.002718 0.000015 0.001626 0.000037 -0.003770 -0.000230 -0.003092 -0.001096 -0.003747 0.001564 -0.000297 -0.002296 0.001977 -0.002732 0.002995 -0.003559 -0.000632 0.003583 -0.003076 -0.000445 -0.001650 -0.002835 0.003747 -0.000963 0.001522 -0.003313 -0.003148 -0.000153 -0.002083 0.001532 0.002407 0.002450 0.001091 0.000769 -0.001376 0.001780 -0.001530 -0.003528 -0.002827 0.003373 0.003145 -0.002779 -0.000146 -0.001203 -0.003094 -0.003835 -0.003702 0.002699 0.002570 -0.001148 0.000505 -0.000183 -0.003717 -0.001969 0.002923 -0.001953 -0.000584 -0.000319 
f0069ecc-7494-4de6-9997-ba20868e3649 0.002830 -0.000893 -0.001306 0.002224 -0.002404 -0.002293 0.003573 0.003196 -0.000024 0.000811 0.001120 0.000465 0.001347 -0.000123 -0.000023 -0.002191 0.001815 0.003437 0.001544 -0.001926 0.000629 -0.000161 0.003825 0.000381 0.000952 0.000574 -0.000993 -0.001801 0.000425 -0.002078 0.000653 0.001491 -0.002442 0.002701 -0.000317 0.000636 0.001000 0.003643 0.002219 -0.003097 0.001414 -0.001414 0.001587 0.001562 0.002387 0.001493 -0.001506 0.003401 -0.000224 0.003595 -0.000207 0.002044 -0.001870 0.003644 0.000482 -0.002524 0.000436 -0.000399 -0.003462 0.001906 -0.002649 0.002069 0.001979 0.003438 0.001539 0.000871 0.000576 0.002384 -0.002991 -0.000245 0.000906 0.002800 -0.002465 0.003747 0.000178 0.001947 -0.001900 0.003843 0.002086 0.000905 -0.002177 -0.000207 0.003496 0.000903 0.003314 -0.003703 0.001465 0.000771 0.003411 -0.002258 -0.002105 -0.000830 -0.003874 -0.000696 -0.001344 0.001348 -0.003745 -0.000463 0.000083 0.002843 0.002901 0.001025 -0.001259 -0.003241 0.003816 0.000789 0.001765 0.000474 0.003629 -0.000490 0.003327 -0.000050 -0.003398 0.000026 -0.001701 0.002842 0.003796 0.000714 -0.001325 -0.002997 0.001548 0.001100 -0.001205 -0.002244 0.001759 0.001864 0.003400 -0.003818 
63420b30-c783-40ba-a516-91eaa6bf96f6 -0.002269 0.001437 -0.003287 0.000877 0.001195 -0.002701 -0.000224 0.003436 -0.000476 0.000942 0.003067 0.002511 -0.002184 0.000294 -0.001996 0.000985 0.001166 -0.003417 0.003899 0.000205 -0.000522 -0.002065 -0.003159 -0.000428 0.002961 -0.002201 -0.001977 0.001335 0.003044 -0.000541 0.002901 -0.002119 0.003022 0.003394 -0.001008 0.000858 0.000975 0.003143 0.003709 0.003467 -0.001045 0.000157 0.002843 -0.002232 -0.000876 -0.002626 0.002343 0.000860 -0.001680 -0.002374 0.003693 0.000796 -0.003562 -0.002150 -0.001646 0.002690 -0.001169 -0.002583 0.002494 -0.000060 -0.003106 0.003725 0.000924 -0.003693 0.000772 -0.001313 0.001146 -0.002438 -0.001030 -0.002298 -0.003882 -0.003148 -0.003040 0.000667 -0.002418 -0.002503 0.001717 -0.002120 0.001054 0.003647 0.002742 0.002262 -0.002543 -0.000965 -0.003819 -0.002699 0.001861 0.000531 0.001033 -0.001271 0.003376 0.003606 -0.003127 0.002128 0.001986 0.000142 -0.002292 -0.001142 -0.002716 0.002912 0.003892 -0.003424 0.001170 -0.000671 -0.000162 0.000158 0.001960 0.003184 -0.002723 -0.001326 -0.001164 0.001951 0.002724 0.000181 0.002859 -0.000357 0.002659 0.003711 -0.001552 -0.000322 0.001341 -0.002897 0.003750 0.002712 0.001622 0.002882 -0.002766 -0.003257 
271adecc-79c9-4c54-884e-35cc19d2962f 0.002185 0.002403 0.000895 0.002146 0.000112 -0.001571 0.000173 0.003662 0.002560 0.001235 0.002793 0.003014 -0.002050 -0.000039 0.001998 -0.000322 -0.002267 0.000304 -0.001770 0.002932 0.002830 -0.000225 0.000565 -0.003055 -0.002248 0.000678 0.002945 -0.000356 -0.003457 0.001993 0.000414 0.002193 -0.003233 0.001160 -0.002759 0.001773 -0.001497 0.001618 0.001825 0.000420 -0.000748 0.002410 -0.000675 0.002915 -0.003263 -0.003040 -0.001529 0.003697 -0.003593 -0.003590 0.002892 0.003577 0.000962 0.003029 0.003383 -0.000627 0.002143 0.003796 -0.002272 0.002848 -0.001028 0.003412 0.001680 0.000834 0.000194 0.002774 0.003009 -0.001141 0.003851 -0.003132 0.001934 -0.002340 -0.002324 -0.000347 0.003905 -0.001976 -0.003313 -0.001960 -0.001342 0.000521 -0.002412 -0.001218 0.002465 0.001832 -0.000821 0.000060 0.002187 0.001105 -0.000360 -0.003099 0.003051 0.002419 0.002682 0.000647 0.003123 0.003341 -0.001857 0.001917 0.002668 0.002556 0.003695 -0.002074 -0.003647 0.000902 0.000416 -0.002045 0.001799 -0.002446 -0.002636 0.002848 0.002137 0.002569 0.003190 -0.002668 -0.003319 -0.002793 -0.000696 -0.002101 -0.001673 0.003881 -0.002656 -0.000246 -0.000096 0.001832 0.001987 -0.001649 -0.001904 -0.001181 
e20dff31-cec8-43ff-b5de-ff4d82991f7c 0.002685 -0.002702 -0.002790 0.000880 -0.001174 0.002890 0.000212 0.001269 -0.003274 -0.001402 0.000874 -0.003554 0.000428 -0.001917 0.003708 -0.001255 0.000868 -0.000925 0.000223 -0.001020 0.001329 0.001962 -0.001180 -0.000134 -0.001023 0.001108 -0.002552 0.002528 -0.001621 0.000424 0.000337 -0.000446 -0.003761 -0.000777 -0.003450 0.000718 -0.002357 -0.000118 0.001649 -0.003605 0.003012 -0.001017 0.002090 0.001996 0.002655 -0.002190 -0.002582 0.002489 -0.003777 0.001698 0.003284 0.002852 0.003646 -0.002759 -0.000575 0.003505 -0.001072 0.001835 -0.001852 -0.002801 -0.001006 0.002710 -0.001313 0.001741 -0.003216 -0.002890 0.002985 -0.001568 0.002032 -0.002365 -0.001116 0.001568 -0.003876 0.003483 0.000355 0.003873 0.001956 -0.003093 0.003868 -0.000244 -0.002927 -0.003108 -0.002607 0.003167 0.003829 0.002784 -0.001648 -0.003696 -0.001113 0.000507 -0.000832 -0.000629 -0.000740 -0.003070 -0.000120 0.002351 -0.001543 -0.002825 -0.001358 0.003670 0.000549 -0.000167 0.002398 -0.001731 -0.002395 0.002994 -0.001144 0.003731 -0.002314 0.002293 -0.001071 -0.001790 0.003537 -0.002660 -0.002971 -0.000557 0.002273 0.003351 -0.002585 0.002348 -0.000965 -0.001602 0.000890 -0.003342 -0.001343 -0.001574 -0.001535 0.000872 
62d87140-f561-4307-921f-91b80cf43498 0.003881 -0.002790 -0.001713 0.002651 0.001060 0.001851 0.001837 -0.001504 -0.000999 -0.000846 0.000321 -0.001531 0.003423 0.001006 0.000164 -0.000337 0.000837 -0.002925 -0.002465 0.001059 -0.001617 0.003545 -0.002929 -0.000078 0.000140 -0.001671 -0.000810 -0.003849 -0.003173 0.002302 0.003582 0.000428 0.002811 -0.000347 0.002286 -0.000959 -0.001406 0.003768 0.002142 -0.003756 0.000204 0.000807 0.003123 0.001091 -0.003534 -0.000745 0.003603 0.001456 -0.000992 0.003565 -0.001869 0.003148 0.000683 -0.000471 -0.000302 -0.002867 0.001315 0.003875 -0.002617 0.003063 -0.001990 0.000114 -0.001459 -0.002531 -0.002613 0.000614 -0.003873 -0.000193 0.001641 0.002256 0.002495 -0.000303 0.002373 -0.002487 -0.001930 -0.001429 -0.003404 0.003619 -0.001252 -0.002512 -0.003662 -0.001758 -0.003333 0.001213 -0.000610 -0.002241 0.001636 0.003137 0.001992 0.002476 0.000365 -0.002317 -0.002430 -0.001972 -0.001705 0.000415 0.003240 0.002930 0.000219 -0.002515 0.003524 -0.000062 0.000751 -0.000045 0.001424 -0.000993 -0.002916 -0.000381 0.003788 -0.000798 0.001338 0.001872 -0.001674 0.003596 0.002443 0.002560 -0.000822 0.002933 0.003303 -0.001584 -0.000323 -0.003827 -0.002768 -0.000414 0.002928 0.002755 0.001612 0.001038 
bc999ee2-389a-4cdc-996b-0c18be78e403 0.003904 -0.003528 0.002539 -0.001650 0.001957 -0.003046 0.002793 -0.000075 0.003291 -0.001176 -0.001904 -0.000526 0.003605 -0.000768 -0.000847 0.001076 -0.002552 -0.001445 -0.000106 0.003698 0.002265 0.001676 0.002342 0.003209 -0.000432 0.000418 0.002943 0.001798 0.000036 0.002315 0.000623 -0.001818 -0.002100 0.002942 -0.002946 -0.001605 -0.002015 -0.001758 0.002554 -0.002885 -0.002038 -0.003439 0.002445 0.000571 -0.000214 0.001825 -0.001129 0.001916 0.003219 -0.002105 -0.003036 0.003557 0.000695 -0.000713 0.003477 -0.002682 -0.003255 0.002960 0.000529 -0.003071 0.000951 0.000121 0.001646 0.002479 0.001982 -0.000046 -0.003519 -0.000880 -0.003286 -0.002374 0.000781 0.002477 0.003851 0.002559 0.002360 0.003071 0.003226 -0.003169 -0.003798 0.001864 0.003656 0.002172 0.001022 -0.002927 0.000824 0.000429 0.000407 -0.002831 -0.003168 0.003160 -0.002262 -0.001690 -0.000878 -0.000409 0.003012 0.001164 -0.001445 0.000487 0.000148 -0.002475 0.000598 0.000909 0.001961 0.001691 0.000007 0.001289 -0.000817 0.002325 -0.003579 0.003543 -0.003334 0.003503 0.003746 -0.003350 -0.002157 -0.000566 0.002301 -0.003132 -0.002260 -0.003137 -0.002448 0.000750 0.001894 -0.000049 0.001580 0.002072 -0.001354 0.001337 
4d36d3cc-ffa1-491f-ae1e-ee88bfc8d823 0.000871 -0.001202 -0.000476 0.003891 0.003439 -0.000586 0.000032 -0.002359 0.002177 -0.000620 0.002842 -0.000157 -0.001251 -0.001312 -0.000826 0.000464 0.002730 -0.001803 0.001353 0.003164 -0.002448 -0.001258 -0.001554 -0.001258 -0.001185 0.002071 -0.003676 0.002309 -0.001349 -0.002229 0.000312 -0.000341 0.000016 0.002329 -0.002211 0.003770 -0.002901 0.001652 0.002017 -0.003441 -0.003659 0.003829 0.003651 0.003726 -0.003254 -0.001230 0.000558 -0.000323 0.000556 0.000263 -0.000717 -0.000270 -0.003593 -0.001685 0.002542 -0.002462 0.001642 -0.002670 0.001074 0.003374 -0.003448 -0.000751 -0.000136 -0.002549 0.001266 -0.002194 0.003304 -0.000758 0.003060 -0.000696 -0.002860 -0.003332 0.000444 0.003224 0.000199 -0.001407 -0.003215 -0.002847 -0.002843 0.001402 -0.001104 0.000904 -0.002737 0.000265 0.001773 0.003364 -0.000999 -0.000064 -0.000703 -0.001164 -0.003774 -0.000564 0.002093 -0.002355 0.001087 -0.000783 0.000768 -0.000963 0.000510 -0.002644 -0.003623 -0.003560 0.001247 -0.000080 -0.002736 0.003135 0.002135 -0.003562 0.002552 -0.003496 0.001702 0.003744 -0.003540 0.003307 -0.003053 -0.003684 -0.002869 -0.002426 0.003302 -0.001756 -0.003346 -0.002372 -0.003079 -0.001296 0.000034 0.002587 -0.003183 -0.002672 
787c6a14-9504-435f-a4b6-bf492dc18187 -0.000840 -0.003761 0.003863 0.002794 0.003211 0.000827 -0.001857 0.003696 0.002915 -0.000012 -0.000013 -0.003210 -0.000356 -0.000088 0.000863 0.001646 -0.003272 0.003748 0.001008 0.001688 0.002984 -0.002299 -0.002989 -0.000534 0.001353 0.001913 -0.002641 -0.002109 0.001532 -0.000662 -0.000697 0.003897 0.002540 -0.002725 -0.002888 -0.001397 -0.000279 0.003517 0.001939 0.001673 0.002763 -0.000105 0.002743 0.002077 -0.003894 -0.000113 -0.003072 0.000143 0.003613 -0.000395 -0.003295 0.003416 0.001408 0.002595 -0.000789 0.002453 -0.003022 -0.001919 -0.001723 0.003457 0.002834 0.002764 0.002431 0.003249 -0.003740 -0.001071 -0.003603 -0.000899 -0.000309 -0.003823 -0.001802 -0.002933 -0.001739 0.002645 0.000659 0.001952 0.000918 0.000215 -0.003682 -0.000579 0.000731 -0.001346 -0.000471 -0.000649 0.000148 -0.002453 -0.000870 0.002462 -0.002547 0.001285 -0.002328 -0.001588 -0.001371 0.001899 0.000252 -0.001985 -0.002256 -0.003111 -0.000434 -0.003185 -0.002128 0.003703 -0.000067 -0.002305 0.000058 -0.002604 0.001896 -0.002450 0.001079 -0.001249 -0.002055 0.003211 -0.002185 -0.002808 0.002564 -0.002718 -0.000065 -0.001705 0.003067 -0.002820 0.001830 -0.002616 0.002853 0.003055 0.001430 -0.002838 -0.003315 0.001324 
56ea1ecb-6ada-4c7c-a5d2-4c9db2546864 -0.001826 0.003738 -0.002180 -0.001267 -0.000365 0.003119 -0.002544 -0.000373 0.000359 0.000140 0.000577 -0.001115 -0.003319 0.000713 0.000672 -0.003253 0.003545 -0.002278 -0.001332 0.001105 0.003861 0.000031 0.000157 -0.002539 0.002571 -0.000037 -0.000977 0.000312 0.000576 0.002093 -0.001005 -0.001763 -0.003299 -0.002156 0.003527 -0.000543 -0.003062 0.000898 0.002106 -0.002055 -0.001502 -0.003324 0.000566 -0.003443 -0.001778 -0.000977 -0.001485 0.001004 0.000718 -0.002972 0.000518 -0.003862 -0.002372 0.000755 0.003192 -0.001938 0.002768 0.000062 -0.001997 -0.001781 -0.002628 -0.001611 0.002211 0.002345 0.002982 -0.001771 0.001517 0.003893 0.003406 -0.001437 -0.003456 0.001038 0.003599 -0.001814 -0.002366 -0.001545 0.001582 0.002698 0.003860 0.001403 -0.002820 -0.002180 -0.001784 -0.001998 0.001203 -0.003776 0.002710 -0.000262 -0.003025 0.003303 -0.001243 0.003257 -0.002484 0.001286 -0.001220 -0.001807 0.001856 0.000252 -0.003703 0.001250 0.001588 -0.002391 0.002276 -0.000875 -0.002612 -0.003816 -0.003406 -0.000778 -0.003060 0.000596 0.002384 0.000431 0.000841 0.001440 0.002740 -0.002994 0.002630 -0.000230 0.001295 -0.000336 0.001708 0.003275 0.000848 -0.000550 0.000586 -0.000237 -0.001574 -0.000870 
3ae281fd-75f1-4ffc-81f9-ce0ae906efec -0.001584 0.001153 -0.003068 -0.002677 0.001881 -0.000988 0.000279 0.000857 -0.001641 0.002512 0.002782 0.001704 0.001381 0.002494 -0.000795 -0.001900 -0.003195 0.001585 0.001364 0.002009 0.003893 -0.003455 0.002508 0.003275 0.002005 -0.003306 -0.001898 0.001981 -0.003889 -0.000923 0.002247 0.000341 -0.001803 0.001190 0.002814 -0.002142 0.002474 0.003154 -0.002329 -0.001733 -0.002906 0.002037 0.000386 0.001664 -0.003488 0.000528 0.001532 -0.001826 -0.003405 0.001411 0.000546 -0.000943 0.000667 0.002234 0.000508 -0.003410 0.002968 0.000675 0.002679 -0.001990 -0.000406 0.001573 0.002531 0.001418 -0.000673 -0.002946 0.000675 -0.003571 0.002872 -0.003335 -0.000838 -0.001911 0.001021 0.000816 -0.003424 0.001534 -0.000675 0.002260 -0.000747 -0.001273 0.002624 0.002652 -0.000436 -0.000570 -0.001755 -0.003882 0.001080 0.002443 -0.003781 0.000617 0.002497 -0.000121 0.001289 0.003084 -0.003289 -0.000418 -0.001537 0.000713 -0.001523 0.000013 -0.001216 -0.003453 0.000784 -0.003533 0.000507 -0.001083 -0.001603 -0.000192 -0.001734 0.000096 0.002131 -0.001839 -0.002978 -0.000667 0.002596 -0.001001 -0.000707 -0.001258 0.002331 -0.003895 0.000571 -0.001826 -0.003085 -0.001118 0.000507 0.003464 0.000535 -0.000295 
ed2cad60-428b-4708-ae23-9023ebb544bf 0.002657 -0.003487 0.000148 -0.003065 0.002331 0.002342 0.001456 0.002578 -0.000944 0.003615 0.001120 -0.001697 0.003199 -0.001806 -0.000686 -0.003573 0.000301 -0.000830 -0.001177 -0.001327 0.001238 -0.002981 0.001560 -0.002754 0.003344 0.000998 -0.000091 -0.002103 0.003859 -0.000621 -0.003172 0.000275 0.000019 0.002342 -0.001183 -0.000220 -0.000028 -0.000690 0.000039 0.000906 0.002272 0.002360 0.003263 -0.003089 -0.000622 -0.000319 0.002199 -0.000459 0.001975 -0.001474 0.002097 0.003352 -0.001071 -0.002738 0.003209 -0.000401 -0.001885 0.003443 0.000554 0.002356 0.000442 0.000033 0.002678 -0.001293 -0.002381 0.000135 -0.002115 -0.003368 0.002243 -0.001412 0.003428 -0.003528 -0.002378 -0.000121 0.001122 -0.002913 0.003412 0.001017 -0.003543 0.003248 0.003869 -0.000549 -0.003154 -0.003090 -0.002722 -0.001553 -0.002355 0.002988 -0.000686 0.001845 -0.001846 0.001332 0.001060 0.001885 0.003413 0.003027 0.003537 -0.001092 0.002760 0.003666 -0.003377 0.001898 -0.001857 -0.001113 -0.003582 0.001830 0.002852 0.001394 0.001131 -0.000410 -0.002280 0.002572 0.002950 0.002294 -0.000169 -0.002403 0.001953 -0.000510 -0.003592 0.001521 0.003237 -0.002898 0.000496 0.003369 -0.001985 0.003423 -0.003279 -0.003339 
c5da50c4-02a0-4f87-a2c9-8ca41416cebf -0.003721 0.003236 -0.001839 0.003617 -0.000975 0.001866 -0.000389 -0.002676 0.002506 -0.000242 -0.000774 0.001727 -0.001474 0.002345 0.000126 0.001758 0.001907 -0.002734 0.000345 0.000513 -0.003306 -0.003388 -0.001603 -0.000570 0.001027 -0.002306 -0.001256 -0.001565 -0.001518 -0.000198 0.001273 -0.000782 0.003221 -0.000448 0.001914 -0.001303 -0.001072 0.000717 -0.003690 0.002703 0.003257 0.000207 -0.001961 0.000061 -0.002231 0.001712 0.000813 -0.002574 -0.001488 0.003058 -0.002293 0.000354 -0.000586 0.000968 0.002474 0.001900 0.001148 -0.001656 -0.001513 -0.002952 -0.001740 0.003079 0.002564 -0.001683 -0.003417 0.003511 -0.002655 0.000538 -0.003753 0.003275 -0.002416 0.002959 -0.003324 -0.000898 -0.003771 -0.002388 -0.002063 -0.000038 0.000965 0.000851 0.000151 0.002329 0.000822 -0.002076 -0.001230 -0.003470 0.003244 0.002498 0.000864 -0.002900 -0.003178 -0.000573 -0.002274 0.000214 0.003526 -0.003873 -0.002946 0.001738 -0.002473 -0.002269 0.003156 0.002419 0.002865 -0.001446 0.001560 0.000952 -0.001367 0.000365 0.000523 0.002976 -0.001388 0.001569 -0.001661 -0.000110 -0.003482 -0.000971 -0.000754 0.000224 0.003190 0.001323 0.001516 -0.002872 -0.000318 0.001427 0.002401 0.001604 0.001334 0.001350 
3097a884-4fd1-45b1-b69f-60dc6a8f4ae2 -0.000970 0.001074 -0.003849 0.003741 -0.001032 -0.000213 -0.001938 0.000101 0.002715 -0.000745 -0.002293 -0.001659 0.001318 -0.002160 0.002140 -0.002432 0.000816 0.002665 0.001998 -0.001152 0.002956 -0.000437 0.000691 -0.002702 -0.002892 0.003389 -0.002956 0.000202 0.001195 0.002858 0.000235 -0.003327 -0.001908 0.000869 0.003556 0.003627 0.000639 0.003570 0.003652 -0.003587 -0.002047 0.002848 -0.000417 -0.002695 0.000579 0.000825 0.003676 -0.002632 -0.000352 0.003855 -0.001508 0.000543 0.002900 0.003347 -0.003090 -0.001711 0.001811 0.003730 -0.000997 -0.000472 0.001422 -0.002309 0.002711 0.002393 -0.001641 0.003690 0.002619 0.001253 -0.000420 0.003388 0.001026 0.001461 -0.001398 0.003363 -0.003130 0.002482 0.001721 -0.003750 0.000115 -0.000023 -0.002449 -0.001193 -0.001869 -0.001249 0.001474 -0.003274 -0.000228 0.001185 -0.002020 -0.002868 -0.002244 0.002160 -0.001549 0.002971 -0.001502 0.001926 -0.001690 0.000837 -0.000962 -0.002358 -0.003622 0.003023 -0.002254 -0.003726 0.001005 0.000950 -0.003454 0.001770 -0.001692 0.003586 0.003229 0.003580 0.002405 0.002383 -0.000591 -0.002458 -0.001100 -0.002723 -0.000132 0.003743 0.003077 0.003399 -0.003013 0.002952 -0.002799 0.001177 0.001931 -0.001539 
3b412c57-b17c-4f2e-a05f-13ef734d553e -0.003183 -0.000533 0.000596 0.000659 0.002372 0.000028 0.002672 -0.003705 0.002133 -0.003885 0.001904 0.000838 0.002491 -0.000564 0.002104 0.002927 0.001795 -0.003529 0.002933 0.003449 -0.003572 -0.001451 0.001186 -0.000775 0.000199 -0.000655 -0.001062 -0.001999 0.002590 -0.001257 0.000710 -0.000889 -0.001560 -0.001917 0.001371 0.003014 -0.001046 0.000737 0.001653 -0.000333 0.000382 0.001163 -0.001714 -0.001027 -0.000057 -0.003621 0.001241 -0.001444 -0.003729 0.002995 0.001685 -0.001023 0.001466 -0.003425 -0.002202 0.000714 0.002015 -0.001347 0.002068 -0.000732 -0.002756 0.001591 -0.003423 -0.001344 -0.002133 0.003505 0.002098 -0.002855 -0.003891 -0.000317 0.000940 -0.003254 0.000909 -0.000408 -0.003450 -0.001863 0.001231 0.001853 -0.003300 0.001274 -0.002117 -0.003738 0.000113 -0.003194 -0.001887 0.003370 -0.000051 -0.000203 -0.003816 0.001948 -0.001956 0.001499 -0.001728 -0.002957 -0.003529 0.000050 -0.002294 0.000817 -0.000643 0.001476 -0.002057 -0.000809 -0.000662 0.003424 -0.002893 -0.003192 -0.002758 0.001433 0.000264 0.002375 -0.001908 -0.001046 -0.003337 0.000053 0.000780 -0.001609 -0.000617 0.003314 0.002660 0.001257 -0.001321 0.002554 -0.002696 0.002547 -0.003222 -0.003361 0.002313 -0.000409 
55399357-9aa1-4cfb-bcc2-2977993565be 0.001384 -0.003742 0.002114 -0.003017 -0.003871 0.000427 0.002045 -0.000241 -0.001566 -0.002445 -0.002315 -0.003132 -0.000255 -0.001479 0.000334 -0.001883 -0.001401 0.000834 -0.001354 0.000297 -0.002945 -0.002411 0.000669 0.000028 -0.003772 -0.001476 0.000636 -0.001450 0.003371 0.000429 0.002105 0.000196 -0.003447 -0.003481 -0.001422 0.002320 0.000012 0.001072 -0.003693 0.001856 -0.002529 -0.000740 0.003854 0.000662 0.000562 0.001602 0.002801 0.003559 -0.000353 0.003594 0.003871 -0.000949 -0.003000 -0.001309 -0.000273 0.002560 -0.001942 0.001436 -0.003176 0.003726 -0.003338 0.002373 0.000106 -0.000820 0.001862 -0.000980 0.000084 -0.000801 0.001578 0.001100 0.000168 0.002153 -0.003355 -0.001927 0.000973 -0.002950 0.000508 -0.001913 0.002890 0.003684 -0.002505 0.001399 -0.001637 -0.000233 -0.002891 0.001761 -0.000479 0.002375 -0.002422 0.003814 0.002278 -0.003190 -0.003888 0.001559 0.002888 0.003680 -0.000277 -0.000315 -0.000687 0.000708 0.002190 -0.000605 -0.000373 -0.002100 -0.001797 -0.000742 0.001074 -0.001795 0.000276 0.003036 0.001065 0.001662 -0.003350 -0.000916 0.003735 -0.003873 0.003264 -0.002984 -0.002598 -0.001200 -0.000400 0.000300 -0.000637 -0.002088 0.003024 0.000471 0.002736 -0.000590 
2937ef58-97c6-412c-bf66-4a23c4b89c67 -0.003467 -0.002011 -0.003066 -0.003371 -0.002898 0.003494 -0.000722 0.000251 -0.001164 0.000933 -0.001488 -0.002005 -0.000545 0.003260 -0.001984 -0.001874 0.003057 0.002563 0.002507 0.000161 0.002498 -0.003092 -0.003573 0.002248 0.003539 -0.003491 -0.000375 0.001420 -0.001285 0.002138 0.000857 -0.002776 -0.001896 -0.000520 0.003241 -0.002502 0.001515 0.001422 -0.002174 -0.002264 0.003651 0.002277 -0.002148 0.003132 0.002711 0.000935 -0.003280 0.002240 0.002408 0.003826 -0.002112 0.000400 0.001308 0.000615 0.003150 -0.001566 -0.001451 0.003209 -0.001880 0.001319 0.002003 0.000360 0.001096 -0.002962 -0.002348 -0.003416 0.003165 -0.001877 -0.000959 0.003292 -0.001464 0.000147 0.002763 0.002421 0.003295 -0.003434 0.000110 0.000466 0.003732 -0.002092 0.003624 -0.002125 -0.001921 -0.000593 -0.003473 -0.000468 0.002490 0.001321 -0.001876 0.000663 -0.002418 0.002596 -0.003100 0.003579 -0.001093 0.001807 -0.000890 -0.000423 0.001085 -0.003656 -0.000739 0.002686 0.002399 -0.001845 0.003099 -0.000750 0.000236 0.002322 0.003247 0.001601 0.000082 -0.002900 -0.000956 -0.000498 -0.001210 -0.001440 -0.000189 -0.002385 0.000442 0.003163 0.001502 0.002992 0.002083 -0.002342 0.000983 0.002383 -0.000142 -0.002258 
f5fc5fdb-660d-43a9-84e3-11e079e73c1f -0.003838 -0.000844 0.003666 -0.001321 -0.001410 0.001592 -0.001311 0.001138 -0.002483 -0.003110 0.003379 0.000273 0.001577 0.000831 0.001240 0.002764 0.003266 0.001273 -0.000333 -0.002595 -0.000434 -0.002260 0.000037 -0.001597 -0.003342 0.001474 0.001579 0.000660 0.001400 0.001565 -0.003240 0.003074 -0.001644 0.000440 -0.001986 0.001951 0.001007 -0.000695 -0.001140 0.001146 -0.003789 -0.002221 0.002977 0.003549 0.003379 -0.002324 0.000855 -0.000709 -0.002884 -0.002948 -0.003659 0.001202 0.000730 0.003545 0.001753 0.002283 -0.002203 -0.001583 0.002315 -0.000517 0.000427 -0.002464 -0.003890 -0.002415 -0.000443 0.000066 0.000904 -0.003125 0.003101 0.002360 0.001226 0.003415 -0.003355 0.000634 0.000516 0.003066 0.001281 0.003676 0.003273 0.000600 0.000764 0.002586 -0.001743 0.002546 -0.001477 -0.003057 0.002073 -0.001779 0.000146 0.000958 -0.000202 -0.002699 0.002180 -0.003824 -0.001757 -0.001331 0.001634 -0.003492 -0.002750 0.003606 -0.002384 -0.003195 0.000863 0.002739 -0.000472 0.002036 -0.001205 0.002926 -0.002391 0.002013 0.000945 0.000082 -0.003819 0.002798 0.000704 0.003162 0.002899 0.003171 -0.003317 -0.000309 -0.003768 0.003844 0.003296 -0.000687 -0.001147 0.000322 0.000128 -0.001137 
6c582256-714c-46ed-aa42-6a4ca33d3dae 0.003272 0.001203 -0.001020 -0.000795 -0.001420 -0.000652 -0.002044 -0.000373 0.000752 0.000844 0.000379 -0.002057 -0.001974 0.001467 0.000569 0.000788 0.002458 0.000742 0.001563 -0.002300 -0.001211 -0.000608 -0.001619 0.002155 0.003556 -0.001795 0.000618 -0.002787 -0.000172 -0.002906 0.002313 -0.002536 0.001234 -0.002948 -0.001532 -0.002490 0.002842 0.003758 0.003042 0.003056 0.002244 -0.003522 0.003732 0.000787 -0.003142 0.001651 0.003680 0.000594 0.000160 0.000419 -0.000518 -0.001470 -0.001515 -0.003007 -0.001251 0.001850 0.000497 0.000555 -0.003070 0.003595 -0.000608 -0.002413 0.001007 0.001191 -0.000069 0.003259 -0.003665 0.001221 0.000700 0.003149 -0.001064 0.003258 -0.002263 -0.001076 0.003570 -0.001312 0.001482 0.000509 0.001146 0.000841 0.000404 -0.001324 0.000797 0.001724 0.003855 0.002775 0.003627 -0.003303 0.003776 -0.002151 -0.003758 0.003610 0.003426 -0.000389 -0.002954 -0.000992 -0.000381 -0.000983 -0.003181 0.002606 -0.003651 -0.001652 -0.001547 -0.001728 -0.001221 0.000863 -0.002642 0.000823 0.002970 -0.000336 -0.001970 0.003778 0.000638 -0.000267 0.002059 0.000162 -0.001295 0.001577 0.000559 -0.000985 0.002601 0.003886 0.000048 0.003140 0.002149 0.000515 -0.002433 0.003537 
972710dd-c2c4-4448-903d-88748237bd44 -0.001751 0.002202 0.003156 -0.000540 -0.001389 -0.000183 -0.002508 0.003350 0.000290 0.002746 0.002559 0.001199 0.000051 -0.000221 0.001671 -0.001434 -0.002998 -0.002429 -0.000093 -0.001106 -0.003429 -0.000024 0.003014 0.000527 -0.003736 -0.001246 0.003353 -0.001374 0.000785 0.002747 -0.001005 -0.002407 0.000862 0.003714 -0.002115 -0.003337 0.002440 -0.000329 0.001933 0.001136 0.001503 -0.002617 0.001079 -0.001522 -0.000978 -0.002349 0.003437 -0.001365 -0.001855 0.002224 -0.001257 -0.000330 0.000004 -0.000882 -0.001576 0.001495 0.002774 -0.003588 0.002617 -0.000878 -0.003101 -0.001185 -0.001605 0.000094 0.000190 -0.002946 0.003599 -0.002499 0.000713 -0.002795 0.002717 -0.002063 -0.000388 0.003766 0.000150 -0.003257 -0.001666 -0.000788 -0.001772 -0.000101 -0.002583 -0.002095 0.000342 0.000509 -0.000261 -0.001672 0.002783 0.001459 -0.000555 -0.002524 -0.002465 -0.000006 -0.003661 0.000745 -0.003501 0.002340 0.001319 0.003630 -0.002188 -0.000225 0.002335 0.003602 -0.001492 -0.002315 -0.002921 0.002833 -0.002391 -0.002236 -0.000619 -0.002361 0.000151 0.001470 0.000515 0.001258 -0.002522 -0.002619 0.003335 0.002074 -0.003189 0.000572 0.001069 -0.002344 -0.002700 -0.002728 0.003065 -0.001094 0.001188 0.003565 
ac44582b-7718-4f63-b3bf-482aae579791 -0.001774 -0.003728 0.000170 0.001831 0.001397 0.002057 0.002218 -0.001578 0.003503 -0.000248 -0.001055 0.000647 0.000890 -0.003024 -0.002950 -0.002525 0.003698 0.001048 -0.002665 0.003813 0.003400 0.001867 -0.001596 -0.001836 0.002855 -0.001185 0.002712 0.001849 -0.002703 -0.001799 0.001253 0.001683 0.001739 -0.002413 0.003075 0.000054 -0.002435 0.000719 -0.000017 0.003669 0.003177 0.001277 0.002914 0.000539 0.000846 0.002592 0.001304 0.002106 0.002748 0.003748 -0.002460 -0.003059 -0.003845 0.003585 -0.000930 0.002300 0.003890 -0.000110 0.003085 -0.002533 0.000004 -0.003763 -0.003043 0.003297 0.002733 0.001579 0.001543 -0.001871 -0.001246 0.003791 0.000860 -0.003002 -0.002652 0.003837 -0.003845 -0.000073 0.001321 -0.001988 -0.003352 0.003412 -0.002035 0.002742 -0.002536 -0.000341 -0.000897 0.001575 -0.000792 0.001403 -0.000884 0.002604 0.002534 0.001250 -0.002799 0.000018 0.000895 -0.002853 -0.000380 -0.003237 -0.001422 0.000701 -0.000256 -0.000793 -0.000906 0.003715 0.000114 0.000157 -0.001177 -0.000636 -0.003821 0.001752 0.001316 0.002100 0.001556 0.000828 0.001211 -0.001333 0.003238 -0.003898 0.000020 0.000880 -0.003107 0.002249 0.002779 -0.000285 -0.001500 -0.002582 0.003100 -0.000799 
9798e678-acbe-4cf4-a895-9250cfe45b7e 0.000687 0.002547 -0.002167 0.002379 0.003108 0.002466 0.003728 0.002584 -0.002619 -0.002505 0.002838 0.000151 -0.000618 -0.000182 -0.000345 -0.000476 -0.000716 0.003302 0.002275 0.001377 0.003285 -0.001291 0.002487 -0.002756 -0.002840 -0.002516 0.003545 0.000414 0.002311 0.003299 0.002613 -0.000422 0.000403 -0.000511 0.002818 -0.000970 -0.001156 0.000952 0.000973 0.000664 -0.002428 -0.003551 0.002468 -0.002176 -0.003424 0.001754 0.001579 0.000294 -0.000053 0.002717 0.002126 -0.003556 -0.000375 0.000881 0.001108 -0.003197 -0.003794 0.003199 0.002434 0.002586 0.000905 -0.003360 -0.000998 -0.003438 -0.002075 -0.000781 -0.001942 0.002916 -0.001180 0.001668 -0.003168 0.001005 -0.003780 0.000678 -0.000980 -0.002544 0.003216 0.000417 0.002534 0.002451 0.001380 0.003562 0.002222 0.003711 -0.000661 0.001375 0.000475 -0.003476 0.001461 -0.000323 -0.000890 -0.000739 0.002614 -0.003496 -0.003292 0.003361 0.003880 0.002986 0.003839 -0.001851 0.001119 -0.000212 -0.001196 0.003862 0.003767 -0.001203 0.000388 0.003240 -0.003307 0.000811 0.000559 0.001918 -0.003737 0.003301 -0.003885 -0.001375 -0.003763 -0.002558 0.002837 0.001667 0.001519 -0.000908 0.002078 -0.002314 0.000090 -0.001749 0.000237 0.001373 
0a33b1f1-8abf-432e-9fcd-c8ac4c364f6e 0.001494 -0.002825 -0.001542 0.000755 0.001503 -0.000160 -0.003844 0.001567 -0.002273 -0.003494 0.002619 -0.001977 0.002023 -0.002172 -0.003003 -0.003681 0.001615 0.002095 -0.002257 0.002789 0.000906 0.003289 0.000265 -0.000017 0.000918 -0.003110 -0.001896 0.001433 -0.001834 0.001752 -0.000523 0.002248 0.002706 0.003081 0.001849 -0.001854 0.000904 -0.001129 0.000451 -0.000568 0.003301 0.000163 0.001217 0.001597 0.001551 0.003423 -0.003141 0.003115 -0.001745 -0.003686 0.001559 0.000850 -0.003851 -0.000429 0.001447 -0.001028 0.001119 0.003097 0.002259 0.000858 0.003606 0.002130 0.000109 -0.003573 0.000688 -0.000584 0.002077 0.000339 -0.000011 -0.000470 0.000678 -0.002753 -0.002654 0.001927 -0.002347 -0.002031 0.002240 0.003224 -0.003229 0.000276 0.001329 -0.000311 -0.001389 0.003463 -0.003393 0.000414 0.002909 0.003232 0.000709 0.003096 -0.003227 -0.001157 0.000873 -0.002397 -0.003132 0.001580 0.000672 -0.003894 -0.001164 -0.001650 0.002555 -0.001288 0.003641 0.000098 0.001271 0.002749 -0.002462 0.003853 -0.000355 0.003708 0.000670 -0.001924 -0.000409 0.002246 -0.001520 -0.003603 0.003269 -0.003514 0.003763 0.002833 0.000708 -0.002529 0.001053 0.002948 0.002250 0.000139 -0.002280 0.001249 
bc076330-c97e-4ee4-bf99-856bc77b9be3 0.002638 0.001049 -0.000168 0.002954 -0.000004 0.002745 0.001414 -0.003774 -0.001072 0.002650 0.000966 0.002509 0.000236 0.002969 0.001125 0.003227 0.001042 0.002765 0.001925 -0.002726 0.001199 0.000181 -0.000659 -0.002418 0.001479 0.001370 -0.001077 0.002567 -0.001825 -0.003132 -0.003566 -0.001164 -0.001716 0.002784 -0.001530 0.000776 -0.002583 0.002531 0.003732 0.003729 -0.000713 0.003675 0.002326 -0.003002 0.003290 -0.001262 -0.000341 -0.000662 -0.000022 -0.002334 -0.002660 -0.002481 0.002494 -0.001086 0.000143 0.000651 -0.002484 -0.003450 -0.002950 -0.002909 0.000044 -0.000281 0.001091 0.003174 0.001805 -0.002218 0.002215 -0.001568 -0.002367 0.003731 0.003867 -0.000992 -0.003232 -0.000165 -0.002505 0.001453 0.000317 -0.003784 -0.001212 0.001725 0.000254 0.002897 -0.000120 0.001274 -0.003172 0.001006 0.000367 0.001903 0.003825 0.002742 0.002631 0.002846 -0.000534 -0.003268 0.001507 0.001765 0.003365 0.001194 0.002223 -0.002525 0.002922 -0.001910 0.002892 -0.003900 0.003326 0.001947 -0.001069 0.002838 0.002689 -0.002541 0.000379 0.001050 0.002409 -0.000451 0.002287 0.002403 0.002717 0.001252 0.000719 -0.002083 -0.000236 0.000610 0.002365 0.003013 -0.003294 -0.003078 0.003091 0.002967 
8b236c0f-30cd-4280-a13c-8aeceb0f172e 0.001769 0.000394 -0.001480 0.000497 -0.001037 0.001317 -0.003326 0.002357 -0.000458 -0.000175 -0.001321 -0.002177 -0.002549 0.000106 0.000569 -0.000384 0.003838 0.003618 -0.003757 0.000347 -0.000501 0.001469 0.000385 -0.002566 -0.002061 0.001313 0.002668 -0.000314 0.001990 0.003529 -0.002462 0.002567 0.000255 0.001653 0.003398 0.001278 -0.002754 -0.000027 -0.003285 -0.002571 -0.003089 -0.001755 0.003009 -0.001893 0.003757 -0.001057 -0.003186 0.002197 0.000304 0.002620 0.001000 -0.003816 -0.003670 -0.000066 -0.001518 0.001174 -0.000724 -0.003783 -0.000172 -0.001958 0.001270 -0.000988 -0.002998 -0.000973 -0.003811 -0.003351 -0.001721 -0.001088 -0.002768 -0.001084 -0.000401 0.003795 -0.001895 0.003829 0.001450 0.003425 -0.003272 0.000606 -0.003155 -0.000855 0.001130 -0.002128 0.000452 0.000308 0.003621 -0.000311 -0.002464 -0.000360 -0.000825 -0.003445 -0.000027 -0.003342 0.002840 0.003359 0.002059 0.001514 0.001502 0.000479 -0.000068 0.002408 -0.002057 -0.002473 0.000153 0.000832 -0.003438 -0.002203 0.001554 -0.003766 0.002790 -0.003032 0.000919 0.000902 0.002742 -0.002731 -0.001207 -0.002078 0.002939 -0.001229 0.001286 0.001140 0.002911 0.003690 0.001986 -0.002841 -0.003863 0.003193 0.002346 -0.001379 
332698fe-72fc-4144-89ac-a20128b56257 -0.000118 0.003777 -0.000669 0.003182 0.002456 0.002732 -0.003661 -0.002248 0.003021 -0.000661 0.003407 0.003677 0.003353 -0.000589 0.001055 -0.001484 -0.002376 -0.001288 -0.001756 0.001436 -0.003103 0.000914 0.001702 0.001355 0.003051 0.002359 0.003894 0.002659 -0.002707 -0.003880 0.002064 0.000740 -0.003244 -0.002914 0.002221 0.000400 0.002154 -0.000092 -0.002922 -0.001261 -0.000655 -0.003458 -0.003195 -0.001290 0.001874 -0.003511 0.000032 -0.001614 0.000443 -0.003247 -0.000389 -0.001313 0.001692 0.000898 -0.003498 -0.001957 -0.001172 0.002947 -0.000909 0.001132 0.001762 -0.003538 -0.003054 0.002348 0.000569 0.002667 0.003497 0.002371 -0.002266 -0.001750 0.000410 0.002904 -0.001388 0.002362 0.003122 -0.001142 0.001841 0.000301 0.002193 -0.001003 -0.003698 0.002458 -0.000060 0.000576 -0.001442 0.001970 -0.001426 0.003669 -0.003259 -0.003168 0.003052 -0.001466 -0.001109 -0.003832 -0.003573 0.003895 -0.002986 -0.003285 -0.002220 0.003556 -0.002008 -0.002336 -0.003534 -0.000145 0.002933 0.000868 -0.002248 0.000108 0.000147 0.002027 -0.003000 -0.001683 0.001780 -0.001998 0.000320 0.002662 0.001782 0.000252 0.002567 -0.000827 0.002443 0.001408 0.001547 0.003666 0.002785 0.002164 -0.001609 -0.001413 
2f36af65-37de-4d70-b33b-6b2ad61a47ea -0.002302 -0.000286 0.002068 -0.002298 -0.003365 0.000893 -0.002928 -0.001668 -0.003071 -0.003846 0.000818 -0.000633 -0.000543 0.002760 -0.002097 0.001416 -0.002544 -0.002144 0.001195 -0.001021 -0.000294 -0.003543 -0.001672 -0.000278 0.002329 0.002425 -0.001444 0.003544 0.002716 0.003114 0.001979 -0.003141 -0.003247 0.002533 -0.001670 -0.002023 -0.001846 -0.001923 -0.002970 -0.001927 -0.002377 -0.002758 0.000364 -0.002314 0.002237 0.002806 -0.000370 -0.001134 0.002459 0.000401 -0.000135 -0.003340 -0.000660 0.001951 -0.003266 0.001929 0.001834 -0.000777 -0.002863 -0.001434 0.001788 -0.001866 -0.000697 -0.000095 0.000581 0.003705 0.000484 -0.001957 0.001238 0.001300 0.002718 0.002088 0.000918 -0.000651 -0.001172 -0.001872 -0.000832 -0.000491 0.002866 0.003509 0.002170 -0.001476 -0.002182 0.001313 -0.000723 -0.002886 -0.002428 -0.002032 0.001475 0.002962 0.002220 -0.002326 0.000862 0.003136 -0.003176 0.003762 0.003274 0.002383 -0.000720 -0.003056 0.000986 0.001077 0.002720 0.000540 -0.001474 0.001441 -0.002236 0.002973 -0.002381 0.001755 -0.001789 0.003861 -0.000407 -0.003129 -0.002353 0.000876 0.001577 -0.000561 -0.000685 -0.003808 -0.002030 -0.001428 -0.000147 0.003758 0.002546 0.003199 -0.001067 0.003415 
6bd46673-eade-45a4-877c-7e01728b08e0 0.001904 -0.002228 0.002669 -0.002115 0.002133 -0.001739 -0.001410 0.002680 -0.000153 0.000936 0.001172 0.002699 0.001145 0.002269 0.000808 -0.002959 0.001404 0.001708 -0.000185 -0.001445 0.000711 -0.002774 0.000097 0.002383 0.001543 0.002483 0.002243 -0.003002 -0.002745 0.003338 0.003108 -0.000085 0.002868 0.001899 -0.001518 0.002602 -0.003898 0.003341 0.001336 0.002066 -0.000163 -0.000073 -0.003708 0.003659 0.002048 0.002778 -0.002906 0.000695 -0.000880 -0.003862 0.002695 0.002915 -0.000813 -0.002505 0.003114 0.002221 -0.002036 -0.003255 0.002583 0.002396 -0.001879 -0.003194 0.000157 0.001222 -0.001315 -0.000800 -0.003099 -0.002963 0.002119 0.000756 0.001070 0.001891 -0.003201 0.001190 -0.001174 0.000524 0.001592 0.001798 0.002539 0.001401 -0.002531 0.002807 0.003589 0.001813 -0.003112 0.003076 -0.003591 -0.002310 -0.002223 0.001877 0.002237 0.000738 0.002535 -0.001381 0.001516 -0.001779 -0.002688 -0.001918 0.000280 -0.002272 0.001680 0.001383 -0.001164 -0.001541 -0.001983 -0.001945 0.002156 0.000128 -0.000844 0.001966 -0.003482 0.000406 0.001109 -0.001984 0.000581 -0.001761 0.001312 -0.001399 -0.001764 0.000844 0.001063 -0.001366 0.002034 -0.002974 0.000723 -0.003114 -0.000134 -0.003811 
8fbf233a-9d6b-454e-8454-3491938521ad -0.000246 -0.001557 -0.000866 -0.002507 0.003786 -0.001752 0.001546 -0.001992 0.001164 -0.001595 -0.001171 -0.002584 -0.001797 0.001441 0.003669 -0.000457 0.001457 0.001495 -0.000359 -0.003678 -0.002201 -0.003287 -0.003242 -0.001305 0.003366 -0.000727 -0.001943 0.002513 -0.000524 0.000814 0.001964 -0.002387 -0.000579 0.003366 -0.002776 -0.000692 0.001756 0.003244 -0.002963 -0.000493 0.003651 -0.001066 -0.001135 -0.003594 0.001818 -0.003620 0.002478 -0.000042 -0.001669 -0.003240 -0.003836 0.000193 0.001331 0.002661 -0.003216 -0.001277 -0.001103 -0.003521 -0.001111 -0.003258 -0.002373 -0.002710 -0.003252 0.000807 0.002641 0.001560 -0.003025 0.002199 -0.000695 -0.000121 -0.001901 -0.001027 0.000892 0.000109 0.003228 0.000861 0.003730 -0.000902 0.003061 0.000203 -0.000023 -0.002563 0.003236 -0.002486 -0.001037 -0.000598 0.002006 0.002351 -0.003707 -0.001187 0.000026 -0.003469 -0.002095 0.002319 0.002973 -0.000881 -0.000780 -0.002897 -0.002820 0.001474 0.003115 0.000440 -0.000351 -0.002277 0.000334 -0.003451 -0.001436 -0.003862 0.003846 -0.000270 0.002837 0.002389 -0.001723 0.002356 0.001216 0.000803 -0.002501 -0.000162 0.002580 0.002718 0.001167 -0.000451 -0.002973 0.000543 -0.003568 0.002739 0.001577 -0.001801 
bc8b2cfc-676e-450e-9c77-7198835760ec -0.000328 0.002204 -0.000567 -0.000473 0.001544 -0.002019 -0.003798 -0.003160 0.000782 -0.002397 -0.001775 -0.002845 0.002275 -0.001858 -0.003700 -0.002658 -0.003419 -0.003256 0.001745 -0.003450 0.003083 0.003258 0.003737 0.000212 0.000317 -0.002546 -0.001713 0.000244 0.000044 -0.003382 0.003606 -0.002365 0.002147 -0.003077 -0.003800 -0.003157 0.000981 0.001264 0.002814 -0.000890 -0.000984 -0.001496 0.001274 0.002264 0.003092 -0.002563 -0.001817 0.002853 -0.001833 0.003874 -0.000991 0.000371 -0.001095 -0.002745 -0.003676 -0.000573 0.002092 -0.001648 -0.003546 0.001788 0.002732 0.003179 -0.000682 -0.000209 -0.001626 -0.000300 -0.001380 0.002114 0.003892 -0.001298 0.003103 0.001820 0.001281 -0.001479 -0.002416 0.003627 0.002929 0.002522 0.000738 -0.003134 -0.003319 0.001192 -0.002276 -0.001107 -0.001965 -0.001317 -0.001637 0.000736 0.001216 0.003477 -0.001032 0.002232 -0.000211 0.000515 -0.003020 -0.000297 0.001359 -0.003656 0.000549 -0.003783 0.003905 -0.001649 0.002556 -0.000939 -0.001085 -0.003783 0.001823 -0.003657 0.000114 0.001981 0.001943 0.002344 -0.001095 -0.001932 0.000170 -0.000516 0.001549 -0.001861 -0.001630 -0.000671 0.002335 -0.000204 0.001580 0.003635 0.000894 0.002723 -0.002869 0.001900 
fb82d43e-ccdc-48e7-b328-5fff6f398f89 0.003509 -0.001230 0.001751 -0.001403 -0.003380 -0.002408 -0.002301 -0.003420 0.003164 0.002639 -0.001221 0.001400 0.003382 -0.002971 -0.003230 0.001329 -0.001149 -0.000153 -0.002583 -0.000173 0.003118 0.003852 0.002855 0.002571 0.003654 0.001274 -0.002035 -0.002270 0.000368 -0.001177 0.000944 -0.003384 0.003245 -0.002744 0.000127 0.002639 0.000568 0.000678 0.001419 -0.000872 -0.000930 -0.000326 0.000543 0.003645 -0.000973 0.001279 0.002916 -0.001903 -0.002186 0.002980 -0.000898 0.001026 0.002142 -0.000600 0.003030 -0.002370 0.001856 -0.003017 -0.001574 0.001704 0.002709 0.000323 0.002201 -0.003685 0.000684 0.000147 -0.003486 -0.003860 0.003081 -0.003103 0.000742 0.001718 0.002372 -0.003798 0.003805 0.002618 0.000252 0.002335 -0.003135 0.002885 0.003506 0.000647 -0.001295 -0.000783 0.003157 0.001969 0.001294 0.002416 -0.000826 -0.000687 0.001299 0.001302 -0.003739 0.003637 -0.001827 -0.001265 0.001730 0.001191 -0.000422 0.003260 -0.002115 -0.000804 0.000700 -0.003320 -0.001963 0.002391 0.001665 0.003252 0.002310 0.001239 -0.001638 -0.000461 0.001442 0.001858 0.003062 0.001593 0.000986 -0.001250 -0.001105 -0.001851 0.003161 -0.001465 0.001760 -0.003790 -0.003092 0.003582 0.000914 -0.003856 
4bc436a9-76b2-41f4-8b4c-231eb6d11a6b 0.001910 -0.000152 0.001835 -0.002213 -0.001765 -0.003066 -0.002099 -0.003542 -0.000549 -0.003474 -0.000852 -0.000405 -0.001943 -0.002633 0.000971 0.000276 0.003170 0.000472 0.003806 -0.002892 -0.002658 0.003621 0.002367 -0.003003 0.002834 -0.002793 0.002186 -0.000868 -0.003646 0.000263 -0.000279 0.000955 0.001111 -0.000302 -0.000950 0.000494 0.001466 0.003443 0.001407 -0.003257 0.001206 0.000228 0.001521 0.001547 0.003524 -0.002378 -0.002671 0.002174 -0.000614 0.001373 0.000134 -0.002604 0.000152 -0.001703 -0.002893 -0.000598 -0.001987 0.001081 0.001640 -0.000648 -0.000494 -0.001508 0.002817 -0.000165 0.000016 0.002158 -0.003615 0.002673 -0.002335 0.002182 0.002252 0.000642 0.000442 -0.000697 0.000881 0.002163 -0.000042 -0.003815 -0.001693 -0.003064 -0.001494 -0.001638 0.003698 0.000925 0.000304 0.001157 -0.003623 0.002735 -0.001091 -0.002502 0.002175 -0.003337 -0.003312 -0.001440 -0.003365 0.002594 0.002401 0.000590 -0.002855 0.000204 0.003700 -0.000761 -0.000991 -0.002040 0.001240 0.000358 0.000348 0.000312 -0.000352 0.003598 -0.002590 -0.000182 0.002962 0.001522 -0.000147 -0.000211 0.003558 0.001807 0.002287 -0.001125 -0.003461 -0.001933 0.000682 -0.002131 0.000799 -0.001565 -0.002249 -0.000780 
